{"learner":{"attributes":{"best_iteration":"176","best_score":"0.28508738318256965","scikit_learn":"{\"_estimator_type\": \"regressor\"}"},"feature_names":[],"feature_types":[],"gradient_booster":{"model":{"gbtree_model_param":{"num_parallel_tree":"1","num_trees":"227"},"iteration_indptr":[0,1,2,3,4,5,6,7,8,9,10,11,12,13,14,15,16,17,18,19,20,21,22,23,24,25,26,27,28,29,30,31,32,33,34,35,36,37,38,39,40,41,42,43,44,45,46,47,48,49,50,51,52,53,54,55,56,57,58,59,60,61,62,63,64,65,66,67,68,69,70,71,72,73,74,75,76,77,78,79,80,81,82,83,84,85,86,87,88,89,90,91,92,93,94,95,96,97,98,99,100,101,102,103,104,105,106,107,108,109,110,111,112,113,114,115,116,117,118,119,120,121,122,123,124,125,126,127,128,129,130,131,132,133,134,135,136,137,138,139,140,141,142,143,144,145,146,147,148,149,150,151,152,153,154,155,156,157,158,159,160,161,162,163,164,165,166,167,168,169,170,171,172,173,174,175,176,177,178,179,180,181,182,183,184,185,186,187,188,189,190,191,192,193,194,195,196,197,198,199,200,201,202,203,204,205,206,207,208,209,210,211,212,213,214,215,216,217,218,219,220,221,222,223,224,225,226,227],"tree_info":[0,0,0,0,0,0,0,0,0,0,0,0,0,0,0,0,0,0,0,0,0,0,0,0,0,0,0,0,0,0,0,0,0,0,0,0,0,0,0,0,0,0,0,0,0,0,0,0,0,0,0,0,0,0,0,0,0,0,0,0,0,0,0,0,0,0,0,0,0,0,0,0,0,0,0,0,0,0,0,0,0,0,0,0,0,0,0,0,0,0,0,0,0,0,0,0,0,0,0,0,0,0,0,0,0,0,0,0,0,0,0,0,0,0,0,0,0,0,0,0,0,0,0,0,0,0,0,0,0,0,0,0,0,0,0,0,0,0,0,0,0,0,0,0,0,0,0,0,0,0,0,0,0,0,0,0,0,0,0,0,0,0,0,0,0,0,0,0,0,0,0,0,0,0,0,0,0,0,0,0,0,0,0,0,0,0,0,0,0,0,0,0,0,0,0,0,0,0,0,0,0,0,0,0,0,0,0,0,0,0,0,0,0,0,0,0,0,0,0,0,0,0,0,0,0,0,0],"trees":[{"base_weights":[-3.2756787E-3,1.2340677E0,-8.37171E-1,1.7693864E0,2.167768E-1,1.03135064E-1,-8.971488E-1,2.0384896E0,8.9259857E-1,2.0267458E0,-7.3299956E-1,1.3133699E0,-9.1752005E-1,2.0471225E0,-3.8702115E-2,1.8648605E0,1.05340056E-1,2.0571365E0,-3.4547085E-1,-8.301245E-1,9.5910203E-1,1.2342695E-1,1.8862224E0,-9.180246E-1,-1.2488166E-2,-3.578864E-2,2.0529058E0,1.945573E0,-4.0320713E-2,-9.388193E-2,4.1739786E-1,3.9260652E-2,2.063242E0,1.7606516E-3,-3.323935E-2,-8.667589E-1,1.4959781E0,1.7394389E0,2.5241676E-1,6.5162494E-3,2.6760653E-2,1.00807905E-1,1.4260652E-2,-5.5428725E-1,-4.592645E-2,1.0357481E-1,1.6600771E0,2.0161786E0,-3.6196974E-1,1.6966784E0,1.655173E-1,1.034712E-1,3.9260652E-2,-8.769681E-1,7.676066E-2,9.410383E-2,1.7606516E-3,9.8823056E-2,1.7606516E-3,-1.6873017E-1,1.1713636E0,-8.23935E-3,3.3208001E-3,-3.9612576E-2,1.7606516E-3,1.8828096E0,-8.473964E-2,5.4529175E-2,1.0302561E-1,-7.9154834E-2,7.676066E-2,1.8716413E0,3.4024346E-1,1.6452739E0,-1.5699742E-2,2.9718527E-1,-8.939318E-1,6.8274856E-1,-6.8743014E-1,8.584517E-2,1.7606516E-3,9.877043E-2,4.8112784E-2,5.2211363E-2,-3.9612576E-2,3.9260652E-2,-3.323935E-2,4.6637427E-2,1.0106788E-1,1.7606501E-3,2.6760653E-2,-8.239348E-3,9.365364E-2,-2.3316836E-2,3.3585478E-2,-3.9612576E-2,8.584517E-2,-2.1125737E-3,-4.5040127E-2,7.676066E-2,-5.7886387E-3,1.7606516E-3,-4.588722E-2],"categories":[],"categories_nodes":[],"categories_segments":[],"categories_sizes":[],"default_left":[0,0,0,0,0,0,0,0,0,0,0,0,0,0,0,0,0,0,0,0,0,0,0,0,0,0,0,0,0,0,0,0,0,0,0,0,0,0,0,0,0,0,0,0,0,0,0,0,0,0,0,0,0,0,0,0,0,0,0,0,0,0,0,0,0,0,0,0,0,0,0,0,0,0,0,0,0,0,0,0,0,0,0,0,0,0,0,0,0,0,0,0,0,0,0,0,0,0,0,0,0,0,0],"id":0,"left_children":[1,3,5,7,9,-1,11,13,15,17,19,21,23,25,-1,27,29,31,33,35,37,39,41,43,-1,-1,45,47,-1,-1,49,-1,51,-1,-1,53,55,57,59,61,-1,-1,-1,63,-1,-1,65,67,69,71,73,-1,-1,75,-1,-1,-1,-1,-1,77,79,-1,-1,-1,-1,81,83,85,-1,-1,-1,87,89,91,93,95,97,99,101,-1,-1,-1,-1,-1,-1,-1,-1,-1,-1,-1,-1,-1,-1,-1,-1,-1,-1,-1,-1,-1,-1,-1,-1],"loss_changes":[1.0546142E4,2.2403433E3,1.0637378E3,6.3399805E2,2.442688E3,0E0,2.7058643E2,5.1779297E1,4.8564932E2,3.6135742E1,1.5395306E2,3.7057625E1,1.6518555E0,3.44541E1,0E0,6.291461E1,2.1845671E2,1.8457031E0,9.372762E-1,7.639368E1,2.7485832E1,8.5704124E-1,6.891876E0,4.3017578E-1,0E0,0E0,1.1173828E1,4.586267E1,0E0,0E0,9.7811844E1,0E0,1.8820801E0,0E0,0E0,2.2590149E1,7.6379833E0,9.423775E0,1.1134233E1,1.6528374E-1,0E0,0E0,0E0,1.6466815E0,0E0,0E0,3.8424835E1,2.2983276E1,2.3285488E1,1.10082855E1,6.8837006E1,0E0,0E0,1.7574402E1,0E0,0E0,0E0,0E0,0E0,9.30305E0,5.3426685E0,0E0,0E0,0E0,0E0,5.221466E0,1.0387183E1,4.2131915E0,0E0,0E0,0E0,4.004135E0,3.4041256E-1,1.2024719E1,7.123051E1,2.1559696E1,4.864929E0,5.7653685E0,2.284226E0,0E0,0E0,0E0,0E0,0E0,0E0,0E0,0E0,0E0,0E0,0E0,0E0,0E0,0E0,0E0,0E0,0E0,0E0,0E0,0E0,0E0,0E0,0E0,0E0],"parents":[2147483647,0,0,1,1,2,2,3,3,4,4,6,6,7,7,8,8,9,9,10,10,11,11,12,12,13,13,15,15,16,16,17,17,18,18,19,19,20,20,21,21,22,22,23,23,26,26,27,27,30,30,32,32,35,35,36,36,37,37,38,38,39,39,43,43,46,46,47,47,48,48,49,49,50,50,53,53,59,59,60,60,65,65,66,66,67,67,71,71,72,72,73,73,74,74,75,75,76,76,77,77,78,78],"right_children":[2,4,6,8,10,-1,12,14,16,18,20,22,24,26,-1,28,30,32,34,36,38,40,42,44,-1,-1,46,48,-1,-1,50,-1,52,-1,-1,54,56,58,60,62,-1,-1,-1,64,-1,-1,66,68,70,72,74,-1,-1,76,-1,-1,-1,-1,-1,78,80,-1,-1,-1,-1,82,84,86,-1,-1,-1,88,90,92,94,96,98,100,102,-1,-1,-1,-1,-1,-1,-1,-1,-1,-1,-1,-1,-1,-1,-1,-1,-1,-1,-1,-1,-1,-1,-1,-1],"split_conditions":[5.814E-1,1.62065E-1,2.249E3,1.22E3,8.444691E0,1.03135064E-1,2.869E3,3.468E3,4.8619E-2,-3E-2,4.68E3,8.66432E-1,4E-4,-3.5791E2,-3.8702115E-2,4.109E3,4.2225E-2,7.91E-3,5.0733E-2,2.83994E-1,2.974E-1,-1.601894E0,6.094827E0,3.104E3,-1.2488166E-2,-3.578864E-2,2.971E3,5E3,-4.0320713E-2,-9.388193E-2,1.1969284E1,3.9260652E-2,1.094E3,1.7606516E-3,-3.323935E-2,2.91E2,1.2413949E1,2.6E1,1.548E3,-3.669725E0,2.6760653E-2,1.00807905E-1,1.4260652E-2,-6.263627E0,-4.592645E-2,1.0357481E-1,5.7E-1,5.15521E-1,7.92E-2,4.5E1,9.28352E-1,1.034712E-1,3.9260652E-2,6.66E-1,7.676066E-2,9.410383E-2,1.7606516E-3,9.8823056E-2,1.7606516E-3,6.48146E-1,2.1E1,-8.23935E-3,3.3208001E-3,-3.9612576E-2,1.7606516E-3,5.63E-1,9.99967E-1,1.3888113E1,1.0302561E-1,-7.9154834E-2,7.676066E-2,1.148901E0,-3.247723E0,5.7023E-2,1.2128702E1,7.38338E-1,9.33E2,3.999E1,-3.5791E2,8.584517E-2,1.7606516E-3,9.877043E-2,4.8112784E-2,5.2211363E-2,-3.9612576E-2,3.9260652E-2,-3.323935E-2,4.6637427E-2,1.0106788E-1,1.7606501E-3,2.6760653E-2,-8.239348E-3,9.365364E-2,-2.3316836E-2,3.3585478E-2,-3.9612576E-2,8.584517E-2,-2.1125737E-3,-4.5040127E-2,7.676066E-2,-5.7886387E-3,1.7606516E-3,-4.588722E-2],"split_indices":[25,31,32,36,43,0,12,32,31,0,12,9,15,0,0,12,21,5,0,40,25,0,46,12,0,0,32,16,0,0,8,0,12,0,0,42,27,16,36,0,0,0,0,0,0,0,25,9,25,59,49,0,0,22,0,0,0,0,0,11,16,0,0,0,0,25,49,8,0,0,0,19,0,31,43,11,12,1,0,0,0,0,0,0,0,0,0,0,0,0,0,0,0,0,0,0,0,0,0,0,0,0,0],"split_type":[0,0,0,0,0,0,0,0,0,0,0,0,0,0,0,0,0,0,0,0,0,0,0,0,0,0,0,0,0,0,0,0,0,0,0,0,0,0,0,0,0,0,0,0,0,0,0,0,0,0,0,0,0,0,0,0,0,0,0,0,0,0,0,0,0,0,0,0,0,0,0,0,0,0,0,0,0,0,0,0,0,0,0,0,0,0,0,0,0,0,0,0,0,0,0,0,0,0,0,0,0,0,0],"sum_hessian":[1.0219E4,4.114E3,6.105E3,2.695E3,1.419E3,1.23E2,5.982E3,2.061E3,6.34E2,4.88E2,9.31E2,5.4E1,5.928E3,2.055E3,6E0,2.83E2,3.51E2,4.82E2,6E0,8.81E2,5E1,1.8E1,3.6E1,5.923E3,5E0,4E0,2.051E3,2.75E2,8E0,4.7E1,3.04E2,3E0,4.79E2,3E0,3E0,8.68E2,1.3E1,2.3E1,2.7E1,1.5E1,3E0,3.3E1,3E0,1E1,5.913E3,1.954E3,9.7E1,2.67E2,8E0,4.9E1,2.55E2,4.76E2,3E0,8.65E2,3E0,1E1,3E0,2E1,3E0,1.9E1,8E0,3E0,1.2E1,7E0,3E0,8.6E1,1.1E1,6E0,2.61E2,5E0,3E0,4.3E1,6E0,2.7E1,2.28E2,1.2E1,8.53E2,7E0,1.2E1,5E0,3E0,7.7E1,9E0,4E0,7E0,3E0,3E0,7E0,3.6E1,3E0,3E0,3E0,2.4E1,1.38E2,9E1,7E0,5E0,7E0,8.46E2,3E0,4E0,3E0,9E0],"tree_param":{"num_deleted":"0","num_feature":"61","num_nodes":"103","size_leaf_vector":"1"}},{"base_weights":[1.6426097E-3,1.1745462E0,-7.9756975E-1,1.6801018E0,2.1106522E-1,9.801989E-2,-8.544136E-1,1.9370747E0,8.514919E-1,1.9212259E0,-6.968936E-1,1.1744928E0,-8.7166584E-1,1.9438359E0,-3.5875577E-2,1.8004158E0,6.7360066E-2,1.9552888E0,-4.0129203E-1,-7.7746874E-1,1.1329839E0,6.822414E-2,1.7728144E0,-8.7214583E-1,-1.1689177E-2,-3.1897277E-2,1.9479125E0,1.8562452E0,-3.6974084E-2,-8.910325E-2,3.2661912E-1,3.6183115E-2,1.9611604E0,-3.5509065E-2,3.0071277E-3,-8.1465316E-1,1.6294775E0,1.577273E0,-5.614863E-1,1.9160554E-1,-2.0867875E-2,9.5508E-2,1.3725876E-2,-3.292486E-1,-4.3631088E-2,1.9651505E0,1.5340413E0,-4.6305373E-2,1.8891335E0,1.64367E0,1.055306E-1,9.834202E-2,3.7788372E-2,1.1973307E-2,-8.426906E-1,3.6886048E-2,8.982637E-2,8.5596836E-1,9.547885E-2,1.9483228E-3,-4.424369E-2,2.6487624E-2,3.2564562E-3,-3.278821E-2,2.7289558E-3,9.8331995E-2,3.5376593E-2,1.826101E0,3.7202987E-1,1.9280077E0,5.555523E-2,1.8772269E-3,9.6795775E-2,5.4472536E-1,-5.781738E-1,-7.141908E-1,8.984109E-2,-8.5956734E-1,3.140262E-1,8.688956E-2,-3.530709E-2,9.736761E-2,6.444594E-2,-1.02856895E-2,8.373801E-2,1.1453286E-2,9.757615E-2,-6.777104E-2,7.3882125E-2,6.9289476E-2,-7.412135E-4,-3.3945784E-2,5.98672E-2,1.9271452E-3,-4.201676E-2,-4.3150686E-2,2.875236E-3,8.5432276E-2,-3.7934575E-2],"categories":[],"categories_nodes":[],"categories_segments":[],"categories_sizes":[],"default_left":[0,0,0,0,0,0,0,0,0,0,0,0,0,0,0,0,0,0,0,0,0,0,0,0,0,0,0,0,0,0,0,0,0,0,0,0,0,0,0,0,0,0,0,0,0,0,0,0,0,0,0,0,0,0,0,0,0,0,0,0,0,0,0,0,0,0,0,0,0,0,0,0,0,0,0,0,0,0,0,0,0,0,0,0,0,0,0,0,0,0,0,0,0,0,0,0,0,0,0],"id":1,"left_children":[1,3,5,7,9,-1,11,13,15,17,19,21,23,25,-1,27,29,31,33,35,37,39,41,43,-1,-1,45,47,-1,-1,49,-1,51,-1,-1,53,55,57,59,61,-1,-1,-1,63,-1,65,67,-1,69,71,73,-1,-1,75,77,-1,-1,79,-1,-1,-1,-1,-1,-1,-1,-1,-1,81,83,85,87,-1,-1,89,91,93,-1,95,97,-1,-1,-1,-1,-1,-1,-1,-1,-1,-1,-1,-1,-1,-1,-1,-1,-1,-1,-1,-1],"loss_changes":[9.657123E3,2.0330698E3,9.6211523E2,5.810747E2,2.2343237E3,0E0,2.1115283E2,3.901123E1,4.8334494E2,4.0416626E1,1.3944147E2,3.3452065E1,1.5083008E0,2.3307617E1,0E0,4.3173706E1,1.7161096E2,1.8702393E0,1.2479732E0,8.188629E1,3.110057E1,1.1957159E0,6.0480576E0,1.1293945E0,0E0,0E0,1.1481934E1,2.819983E1,0E0,0E0,9.1083664E1,0E0,1.5893555E0,0E0,0E0,2.0673828E1,5.0679016E-1,5.7590637E0,1.8666809E0,5.902913E-1,0E0,0E0,0E0,9.7318965E-1,0E0,2.0761719E0,2.8965958E1,0E0,2.0009033E1,2.0852211E1,8.138704E1,0E0,0E0,4.0274326E1,1.7093628E1,0E0,0E0,1.7860348E1,0E0,0E0,0E0,0E0,0E0,0E0,0E0,0E0,0E0,1.725769E0,1.4791665E1,1.0481323E1,1.6060768E1,0E0,0E0,7.780946E1,1.9721172E1,2.201538E0,0E0,2.807129E0,2.0839756E1,0E0,0E0,0E0,0E0,0E0,0E0,0E0,0E0,0E0,0E0,0E0,0E0,0E0,0E0,0E0,0E0,0E0,0E0,0E0,0E0],"parents":[2147483647,0,0,1,1,2,2,3,3,4,4,6,6,7,7,8,8,9,9,10,10,11,11,12,12,13,13,15,15,16,16,17,17,18,18,19,19,20,20,21,21,22,22,23,23,26,26,27,27,30,30,32,32,35,35,36,36,37,37,38,38,39,39,43,43,45,45,46,46,48,48,49,49,50,50,53,53,54,54,57,57,67,67,68,68,69,69,70,70,73,73,74,74,75,75,77,77,78,78],"right_children":[2,4,6,8,10,-1,12,14,16,18,20,22,24,26,-1,28,30,32,34,36,38,40,42,44,-1,-1,46,48,-1,-1,50,-1,52,-1,-1,54,56,58,60,62,-1,-1,-1,64,-1,66,68,-1,70,72,74,-1,-1,76,78,-1,-1,80,-1,-1,-1,-1,-1,-1,-1,-1,-1,82,84,86,88,-1,-1,90,92,94,-1,96,98,-1,-1,-1,-1,-1,-1,-1,-1,-1,-1,-1,-1,-1,-1,-1,-1,-1,-1,-1,-1],"split_conditions":[2.907E3,1.62065E-1,2.249E3,1.22E3,8.444691E0,9.801989E-2,2.869E3,2.09842E-1,4.8619E-2,9.0816E-1,4.746E3,4.40406E-1,1.024E3,-3.5791E2,-3.5875577E-2,4.109E3,4.2225E-2,6.2953E-2,8.4272E-2,2.83994E-1,1.721E3,1.808E3,5.918448E0,3.104E3,-1.1689177E-2,-3.1897277E-2,2.985E3,4.4613E-2,-3.6974084E-2,-8.910325E-2,8.60895E-1,3.6183115E-2,1.094E3,-3.5509065E-2,3.0071277E-3,1.094E3,-1.898529E0,1.2154891E1,4.889E3,-5.17444E-1,-2.0867875E-2,9.5508E-2,1.3725876E-2,3.338E3,-4.3631088E-2,1.1964005E2,2.83E3,-4.6305373E-2,5E3,1.486E3,2.3E1,9.834202E-2,3.7788372E-2,7.38338E-1,9.80826E-1,3.6886048E-2,8.982637E-2,2.25822E-1,9.547885E-2,1.9483228E-3,-4.424369E-2,2.6487624E-2,3.2564562E-3,-3.278821E-2,2.7289558E-3,9.8331995E-2,3.5376593E-2,1.6403E-2,3.256301E0,-1.686829E0,1.8892E-2,1.8772269E-3,9.6795775E-2,1.61E3,6.68325E-1,9E-2,8.984109E-2,3.6427496E2,1.8887473E2,8.688956E-2,-3.530709E-2,9.736761E-2,6.444594E-2,-1.02856895E-2,8.373801E-2,1.1453286E-2,9.757615E-2,-6.777104E-2,7.3882125E-2,6.9289476E-2,-7.412135E-4,-3.3945784E-2,5.98672E-2,1.9271452E-3,-4.201676E-2,-4.3150686E-2,2.875236E-3,8.5432276E-2,-3.7934575E-2],"split_indices":[24,31,32,36,43,0,12,23,31,2,12,11,44,0,0,12,21,29,0,40,24,12,46,12,0,0,32,29,0,0,50,0,12,0,0,12,0,43,12,10,0,0,0,32,0,4,24,0,16,36,16,0,0,11,57,0,0,6,0,0,0,0,0,0,0,0,0,23,7,6,0,0,0,24,60,0,0,22,1,0,0,0,0,0,0,0,0,0,0,0,0,0,0,0,0,0,0,0,0],"split_type":[0,0,0,0,0,0,0,0,0,0,0,0,0,0,0,0,0,0,0,0,0,0,0,0,0,0,0,0,0,0,0,0,0,0,0,0,0,0,0,0,0,0,0,0,0,0,0,0,0,0,0,0,0,0,0,0,0,0,0,0,0,0,0,0,0,0,0,0,0,0,0,0,0,0,0,0,0,0,0,0,0,0,0,0,0,0,0,0,0,0,0,0,0,0,0,0,0,0,0],"sum_hessian":[1.03E4,4.174E3,6.126E3,2.737E3,1.437E3,1.23E2,6.003E3,2.088E3,6.49E2,4.98E2,9.39E2,5E1,5.953E3,2.083E3,5E0,2.93E2,3.56E2,4.91E2,7E0,9E2,3.9E1,1.8E1,3.2E1,5.948E3,5E0,3E0,2.08E3,2.87E2,6E0,4.3E1,3.13E2,3E0,4.88E2,4E0,3E0,8.87E2,1.3E1,3.1E1,8E0,1.5E1,3E0,2.9E1,3E0,6E0,5.942E3,1.993E3,8.7E1,3E0,2.84E2,4.4E1,2.69E2,4.85E2,3E0,2.9E1,8.58E2,3E0,1E1,1.1E1,2E1,3E0,5E0,3E0,1.2E1,3E0,3E0,1.99E3,3E0,6.9E1,1.8E1,2.78E2,6E0,7E0,3.7E1,1.64E2,1.05E2,2.1E1,8E0,8.46E2,1.2E1,7E0,4E0,5.4E1,1.5E1,1.3E1,5E0,4E0,2.74E2,3E0,3E0,6.5E1,9.9E1,1E2,5E0,3E0,1.8E1,8.43E2,3E0,5E0,7E0],"tree_param":{"num_deleted":"0","num_feature":"61","num_nodes":"99","size_leaf_vector":"1"}},{"base_weights":[-3.1570422E-3,1.1173666E0,-7.547569E-1,1.6120601E0,2.2487587E-1,9.318336E-2,-8.104611E-1,1.843107E0,8.5232645E-1,1.8318465E0,-6.170796E-1,1.2148622E0,-8.2768714E-1,1.8484197E0,-3.2805532E-2,1.7037511E0,3.549993E-2,1.8640367E0,4.2032722E-2,-7.2340316E-1,1.0857077E0,3.1068819E-3,8.932279E-2,-7.4495226E-3,-8.2810146E-1,1.8510772E0,9.28964E-4,1.755189E0,-3.538948E-2,-8.470081E-2,3.061679E-1,3.3269934E-2,9.34889E-2,-3.8287178E-2,7.350665E-2,-7.557189E-1,1.5518516E0,1.7126865E0,8.005677E-2,-8.285547E-1,-1.1214598E-2,1.8666492E0,1.458875E0,1.8149059E0,-3.4629777E-1,-7.2914414E-2,1.141278E0,7.8891896E-2,-7.6806426E-1,3.3517558E-2,8.696334E-2,1.924353E-2,9.341883E-2,-4.53987E-1,9.723456E-1,-5.494329E-1,-4.145284E-2,1.1426731E0,9.363914E-2,1.6358081E0,-1.468957E-1,-6.7955E-2,9.2770934E-2,-7.421336E-2,7.111155E-2,-2.95373E-1,1.0743852E0,1.5434374E0,2.4953963E-1,-6.397575E-2,-7.974839E-1,2.0918205E-2,-4.091648E-2,7.981747E-2,-9.087312E-3,5.1190574E-3,-3.727993E-2,8.732427E-2,-4.3864913E-2,8.8087074E-2,4.5084003E-2,-3.5409074E-2,3.5337843E-2,2.5594844E-2,-3.2790907E-2,6.581568E-2,-1.836814E-2,9.4837E-2,-2.920728E-2,-3.4557872E-3,8.645907E-2,-2.9860124E-2,4.6408568E-2,-3.1156702E-2,8.668769E-2,3.1429597E-3,-4.086042E-2],"categories":[],"categories_nodes":[],"categories_segments":[],"categories_sizes":[],"default_left":[0,0,0,0,0,0,0,0,0,0,0,0,0,0,0,0,0,0,0,0,0,0,0,0,0,0,0,0,0,0,0,0,0,0,0,0,0,0,0,0,0,0,0,0,0,0,0,0,0,0,0,0,0,0,0,0,0,0,0,0,0,0,0,0,0,0,0,0,0,0,0,0,0,0,0,0,0,0,0,0,0,0,0,0,0,0,0,0,0,0,0,0,0,0,0,0,0],"id":2,"left_children":[1,3,5,7,9,-1,11,13,15,17,19,21,23,25,-1,27,29,31,33,35,37,-1,-1,-1,39,41,-1,43,-1,-1,45,-1,-1,-1,-1,47,49,51,53,55,-1,57,59,61,63,65,67,-1,69,-1,-1,-1,-1,71,73,75,-1,77,-1,79,81,83,-1,-1,-1,85,87,89,91,93,95,-1,-1,-1,-1,-1,-1,-1,-1,-1,-1,-1,-1,-1,-1,-1,-1,-1,-1,-1,-1,-1,-1,-1,-1,-1,-1],"loss_changes":[8.628154E3,1.8153818E3,8.958015E2,4.6262256E2,1.9874525E3,0E0,2.1047095E2,2.825879E1,4.3025922E2,2.8826294E1,1.7527786E2,3.330751E1,1.4536133E0,9.621582E0,0E0,3.8932495E1,1.4877538E2,1.9157715E0,1.27320385E1,6.7855316E1,3.562336E1,0E0,0E0,0E0,1.3371582E0,9.287109E0,0E0,3.804718E1,0E0,0E0,8.7248314E1,0E0,0E0,0E0,0E0,2.694342E1,7.4079895E-1,6.291069E0,1.14532585E1,2.4047852E-1,0E0,6.17334E0,2.3686539E1,2.2349731E1,2.022996E1,4.8732502E1,3.0276947E1,0E0,1.8339783E1,0E0,0E0,0E0,0E0,5.149876E0,6.9130077E0,1.930747E0,0E0,2.4793097E1,0E0,4.9865265E0,4.8129416E0,2.7362175E0,0E0,0E0,0E0,1.8952671E1,4.352016E1,1.7957321E1,1.6676933E1,3.816227E1,1.4652954E1,0E0,0E0,0E0,0E0,0E0,0E0,0E0,0E0,0E0,0E0,0E0,0E0,0E0,0E0,0E0,0E0,0E0,0E0,0E0,0E0,0E0,0E0,0E0,0E0,0E0,0E0],"parents":[2147483647,0,0,1,1,2,2,3,3,4,4,6,6,7,7,8,8,9,9,10,10,11,11,12,12,13,13,15,15,16,16,17,17,18,18,19,19,20,20,24,24,25,25,27,27,30,30,35,35,36,36,37,37,38,38,39,39,41,41,42,42,43,43,44,44,45,45,46,46,48,48,53,53,54,54,55,55,57,57,59,59,60,60,61,61,65,65,66,66,67,67,68,68,69,69,70,70],"right_children":[2,4,6,8,10,-1,12,14,16,18,20,22,24,26,-1,28,30,32,34,36,38,-1,-1,-1,40,42,-1,44,-1,-1,46,-1,-1,-1,-1,48,50,52,54,56,-1,58,60,62,64,66,68,-1,70,-1,-1,-1,-1,72,74,76,-1,78,-1,80,82,84,-1,-1,-1,86,88,90,92,94,96,-1,-1,-1,-1,-1,-1,-1,-1,-1,-1,-1,-1,-1,-1,-1,-1,-1,-1,-1,-1,-1,-1,-1,-1,-1,-1],"split_conditions":[2.907E3,1.45258E-1,4.498E-1,1.148E3,8.444691E0,9.318336E-2,2.313E3,2.17243E-1,4.8619E-2,-3E-2,4.763E3,8.66432E-1,2.869E3,3.2565955E2,-3.2805532E-2,4.109E3,4.2225E-2,4.86506E-1,6.264872E0,2.83994E-1,1.581E3,3.1068819E-3,8.932279E-2,-7.4495226E-3,2E0,5.97E-1,9.28964E-4,5E3,-3.538948E-2,-8.470081E-2,-5.531383E0,3.3269934E-2,9.34889E-2,-3.8287178E-2,7.350665E-2,3.932E-2,-1.033449E0,4.797E3,9.86477E-1,1.24E2,-1.1214598E-2,2.8061144E1,2.861E3,5.15521E-1,3.96E2,4.902E3,2.2E1,7.8891896E-2,1.171E3,3.3517558E-2,8.696334E-2,1.924353E-2,9.341883E-2,-1.047704E0,-1.214E-2,-2.830201E0,-4.145284E-2,3.624E3,9.363914E-2,2.808E3,1.1627E-2,2.646E3,9.2770934E-2,-7.421336E-2,7.111155E-2,1.188E3,1.721E3,1.286426E0,8.1232E-2,2.29292E-1,-4.24293E-1,2.0918205E-2,-4.091648E-2,7.981747E-2,-9.087312E-3,5.1190574E-3,-3.727993E-2,8.732427E-2,-4.3864913E-2,8.8087074E-2,4.5084003E-2,-3.5409074E-2,3.5337843E-2,2.5594844E-2,-3.2790907E-2,6.581568E-2,-1.836814E-2,9.4837E-2,-2.920728E-2,-3.4557872E-3,8.645907E-2,-2.9860124E-2,4.6408568E-2,-3.1156702E-2,8.668769E-2,3.1429597E-3,-4.086042E-2],"split_indices":[24,31,33,36,43,0,12,23,31,0,12,9,12,27,0,12,21,19,7,40,24,0,0,0,14,33,0,16,0,0,0,0,0,0,0,21,10,12,55,36,0,41,24,9,24,12,59,0,12,0,0,0,0,6,2,0,0,12,0,24,2,12,0,0,0,24,24,19,31,31,11,0,0,0,0,0,0,0,0,0,0,0,0,0,0,0,0,0,0,0,0,0,0,0,0,0,0],"split_type":[0,0,0,0,0,0,0,0,0,0,0,0,0,0,0,0,0,0,0,0,0,0,0,0,0,0,0,0,0,0,0,0,0,0,0,0,0,0,0,0,0,0,0,0,0,0,0,0,0,0,0,0,0,0,0,0,0,0,0,0,0,0,0,0,0,0,0,0,0,0,0,0,0,0,0,0,0,0,0,0,0,0,0,0,0,0,0,0,0,0,0,0,0,0,0,0,0],"sum_hessian":[1.0243E4,4.112E3,6.131E3,2.645E3,1.467E3,1.27E2,6.004E3,2.027E3,6.18E2,5.04E2,9.63E2,5E1,5.954E3,2.023E3,4E0,3.02E2,3.16E2,4.95E2,9E0,9.07E2,5.6E1,1.7E1,3.3E1,4E0,5.95E3,2.02E3,3E0,2.96E2,6E0,4.2E1,2.74E2,3E0,4.92E2,6E0,3E0,8.95E2,1.2E1,3.4E1,2.2E1,5.945E3,5E0,1.939E3,8.1E1,2.88E2,8E0,1.89E2,8.5E1,4E0,8.91E2,3E0,9E0,4E0,3E1,1.4E1,8E0,1.3E1,5.932E3,1.8E1,1.921E3,7.3E1,8E0,6E0,2.82E2,5E0,3E0,1.59E2,3E1,5.8E1,2.7E1,3.6E1,8.55E2,4E0,1E1,5E0,3E0,3E0,1E1,1.4E1,4E0,6.1E1,1.2E1,5E0,3E0,3E0,3E0,6E0,1.53E2,2E1,1E1,6E0,5.2E1,1.2E1,1.5E1,2.8E1,8E0,1.9E1,8.36E2],"tree_param":{"num_deleted":"0","num_feature":"61","num_nodes":"97","size_leaf_vector":"1"}},{"base_weights":[4.943395E-5,1.054222E0,-7.249157E-1,1.6415882E0,5.1675105E-1,8.844005E-2,-7.7064395E-1,-1.066475E0,1.7101297E0,1.127102E0,-5.856967E-1,1.1282873E0,-7.862035E-1,-8.051575E-2,7.894155E-2,1.7546968E0,4.2791778E-1,4.4018856E-1,1.4935158E0,1.476268E0,-7.59475E-1,1.0858341E-3,1.622609E0,-7.8663725E-1,-1.0482865E-2,6.157994E-1,1.782765E0,1.646312E0,-3.3413383E-1,1.7533967E0,-2.6141228E-2,1.2963791E-1,1.6304454E0,7.007066E-1,8.7885946E-2,7.099076E-2,-7.7375245E-1,3.0098613E-3,-8.314882E-3,8.739195E-2,1.1071207E-2,-2.7999845E-1,-7.870861E-1,1.2950072E0,-7.7485377E-1,8.923077E-2,2.309105E-2,8.719565E-2,3.242645E-2,-5.084774E-1,7.121246E-2,3.7148964E-2,8.8949315E-2,-4.7038755E-1,6.551406E-1,8.263865E-2,-1.6693887E-1,1.6968557E0,2.2891958E-1,1.1807384E0,-3.8176194E-2,-7.809869E-1,9.851152E-3,4.6250676E-3,-3.0374933E-2,-5.446597E-1,-3.937756E-2,8.613311E-2,-6.694307E-2,-5.813823E-2,3.2728493E-2,5.891696E-1,-7.2893345E-1,1.0575973E0,-5.7145196E-1,1.172329E0,1.2028098E-1,-2.533706E-1,6.703718E-2,1.7543842E0,3.0879205E-1,1.5395576E0,-4.246403E-2,1.3693406E-2,8.215072E-2,-7.851695E-1,-6.265905E-4,-3.6453586E-2,5.987068E-3,7.69375E-2,-2.4135154E-2,3.2756198E-3,-4.0694755E-2,-3.578184E-2,8.076777E-2,5.2379515E-2,-3.2950886E-2,2.7074615E-2,8.383659E-2,2.7625507E-2,-3.8151596E-2,-2.5715724E-2,3.0646517E-3,8.838696E-2,-1.0649343E-2,-2.8328756E-2,4.2037178E-2,3.348514E-2,8.311075E-2,-3.946953E-2,-2.0079916E-2],"categories":[],"categories_nodes":[],"categories_segments":[],"categories_sizes":[],"default_left":[0,0,0,0,0,0,0,0,0,0,0,0,0,0,0,0,0,0,0,0,0,0,0,0,0,0,0,0,0,0,0,0,0,0,0,0,0,0,0,0,0,0,0,0,0,0,0,0,0,0,0,0,0,0,0,0,0,0,0,0,0,0,0,0,0,0,0,0,0,0,0,0,0,0,0,0,0,0,0,0,0,0,0,0,0,0,0,0,0,0,0,0,0,0,0,0,0,0,0,0,0,0,0,0,0,0,0,0,0,0,0],"id":3,"left_children":[1,3,5,7,9,-1,11,13,15,17,19,21,23,-1,-1,25,27,29,31,33,35,37,39,41,-1,43,45,47,49,51,53,55,57,59,-1,-1,61,-1,-1,-1,-1,63,65,67,69,-1,-1,-1,-1,71,-1,-1,-1,73,75,-1,77,79,81,83,-1,85,-1,-1,-1,87,-1,-1,-1,-1,-1,89,91,93,95,97,99,101,-1,103,105,107,-1,-1,-1,109,-1,-1,-1,-1,-1,-1,-1,-1,-1,-1,-1,-1,-1,-1,-1,-1,-1,-1,-1,-1,-1,-1,-1,-1,-1],"loss_changes":[7.860224E3,1.3220024E3,6.961831E2,3.7348877E2,1.4743215E3,0E0,1.7768872E2,7.447672E1,1.1063428E2,3.5403845E2,2.809011E2,2.7138676E1,1.2202148E0,0E0,0E0,5.89834E1,6.2889423E1,3.015135E2,1.7124048E2,1.1837738E1,2.3467804E1,1.5770894E-1,5.3820496E0,1.0217285E0,0E0,4.5448956E1,3.4506836E0,1.1617737E0,1.3508253E1,1.7615051E0,1.10456825E2,3.882125E1,7.713721E1,1.3595036E1,0E0,0E0,5.2477417E0,0E0,0E0,0E0,0E0,9.6165043E-1,1.0595703E-1,3.8389156E1,9.683751E0,0E0,0E0,0E0,0E0,9.880777E0,0E0,0E0,0E0,3.4683655E1,3.9563473E1,0E0,9.613405E0,6.289502E1,5.6488617E1,5.227482E0,0E0,2.198883E0,0E0,0E0,0E0,1.9860864E0,0E0,0E0,0E0,0E0,0E0,7.9731684E0,2.3555756E0,1.5092479E1,3.014022E1,2.2098541E1,2.788967E1,5.742385E0,0E0,2.0631836E1,1.5870305E1,5.7411194E-1,0E0,0E0,0E0,7.102356E-1,0E0,0E0,0E0,0E0,0E0,0E0,0E0,0E0,0E0,0E0,0E0,0E0,0E0,0E0,0E0,0E0,0E0,0E0,0E0,0E0,0E0,0E0,0E0,0E0,0E0],"parents":[2147483647,0,0,1,1,2,2,3,3,4,4,6,6,7,7,8,8,9,9,10,10,11,11,12,12,15,15,16,16,17,17,18,18,19,19,20,20,21,21,22,22,23,23,25,25,26,26,27,27,28,28,29,29,30,30,31,31,32,32,33,33,36,36,41,41,42,42,43,43,44,44,49,49,53,53,54,54,56,56,57,57,58,58,59,59,61,61,65,65,71,71,72,72,73,73,74,74,75,75,76,76,77,77,79,79,80,80,81,81,85,85],"right_children":[2,4,6,8,10,-1,12,14,16,18,20,22,24,-1,-1,26,28,30,32,34,36,38,40,42,-1,44,46,48,50,52,54,56,58,60,-1,-1,62,-1,-1,-1,-1,64,66,68,70,-1,-1,-1,-1,72,-1,-1,-1,74,76,-1,78,80,82,84,-1,86,-1,-1,-1,88,-1,-1,-1,-1,-1,90,92,94,96,98,100,102,-1,104,106,108,-1,-1,-1,110,-1,-1,-1,-1,-1,-1,-1,-1,-1,-1,-1,-1,-1,-1,-1,-1,-1,-1,-1,-1,-1,-1,-1,-1,-1],"split_conditions":[2.907E3,1.341E3,2.249E3,3E0,2E1,8.844005E-2,2.869E3,4.87E2,8.954836E1,2.249E3,1.343E3,3.55659E-1,1.024E3,-8.051575E-2,7.894155E-2,2E0,9.30662E-1,4.469E3,5.74575E-1,2.22E2,1.6797E0,-5.105764E0,6.129474E0,3.104E3,-1.0482865E-2,1.10022E-1,9.99745E-1,-6.221E-3,4.577E3,-1.92201E0,1.2104526E1,7.4836E-1,3E0,4E1,8.7885946E-2,7.099076E-2,2.83994E-1,3.0098613E-3,-8.314882E-3,8.739195E-2,1.1071207E-2,8.757535E0,1.24E2,4.997E3,2.1E1,8.923077E-2,2.309105E-2,8.719565E-2,3.242645E-2,8.34E2,7.121246E-2,3.7148964E-2,8.8949315E-2,2.8229603E1,1.537E3,8.263865E-2,-4.88178E-1,2.815E3,2.869E3,2.83994E-1,-3.8176194E-2,6.426795E0,9.851152E-3,4.6250676E-3,-3.0374933E-2,-5.36883E-1,-3.937756E-2,8.613311E-2,-6.694307E-2,-5.813823E-2,3.2728493E-2,2.45493E0,-3.5791E2,3.5802246E1,7.983685E0,4.854E3,1.2906875E1,1.23425E-1,6.703718E-2,2.56776E-1,2.752197E0,5.601E-3,-4.246403E-2,1.3693406E-2,8.215072E-2,2.2792936E1,-6.265905E-4,-3.6453586E-2,5.987068E-3,7.69375E-2,-2.4135154E-2,3.2756198E-3,-4.0694755E-2,-3.578184E-2,8.076777E-2,5.2379515E-2,-3.2950886E-2,2.7074615E-2,8.383659E-2,2.7625507E-2,-3.8151596E-2,-2.5715724E-2,3.0646517E-3,8.838696E-2,-1.0649343E-2,-2.8328756E-2,4.2037178E-2,3.348514E-2,8.311075E-2,-3.946953E-2,-2.0079916E-2],"split_indices":[24,32,32,44,37,0,12,12,4,32,12,11,44,0,0,42,49,39,11,42,1,18,46,12,0,23,52,34,12,6,43,49,16,37,0,0,40,0,0,0,0,1,36,16,16,0,0,0,0,12,0,0,0,41,24,0,18,24,12,40,0,46,0,0,0,18,0,0,0,0,0,6,0,2,43,12,2,23,0,34,7,23,0,0,0,22,0,0,0,0,0,0,0,0,0,0,0,0,0,0,0,0,0,0,0,0,0,0,0,0,0],"split_type":[0,0,0,0,0,0,0,0,0,0,0,0,0,0,0,0,0,0,0,0,0,0,0,0,0,0,0,0,0,0,0,0,0,0,0,0,0,0,0,0,0,0,0,0,0,0,0,0,0,0,0,0,0,0,0,0,0,0,0,0,0,0,0,0,0,0,0,0,0,0,0,0,0,0,0,0,0,0,0,0,0,0,0,0,0,0,0,0,0,0,0,0,0,0,0,0,0,0,0,0,0,0,0,0,0,0,0,0,0,0,0],"sum_hessian":[1.0283E4,4.19E3,6.093E3,2.001E3,2.189E3,1.09E2,5.984E3,4.9E1,1.952E3,1.409E3,7.8E2,4.8E1,5.936E3,4.1E1,8E0,1.886E3,6.6E1,4.91E2,9.18E2,6E1,7.2E2,1.5E1,3.3E1,5.931E3,5E0,4.6E1,1.84E3,2.5E1,4.1E1,1.28E2,3.63E2,8.4E1,8.34E2,1.7E1,4.3E1,4E0,7.16E2,1.2E1,3E0,3E1,3E0,6E0,5.925E3,3.1E1,1.5E1,1.837E3,3E0,2.2E1,3E0,3.8E1,3E0,4E0,1.24E2,2.2E2,1.43E2,1.3E1,7.1E1,7.96E2,3.8E1,1.3E1,4E0,7.11E2,5E0,3E0,3E0,1.4E1,5.911E3,2.7E1,4E0,1.2E1,3E0,6E0,3.2E1,1.3E1,2.07E2,7.2E1,7.1E1,6.8E1,3E0,7.64E2,3.2E1,1.7E1,2.1E1,5E0,8E0,7.07E2,4E0,1.1E1,3E0,3E0,3E0,3E0,2.9E1,3E0,1E1,1E1,1.97E2,3.3E1,3.9E1,4.8E1,2.3E1,3.7E1,3.1E1,7.59E2,5E0,1.2E1,2E1,3E0,1.4E1,6.98E2,9E0],"tree_param":{"num_deleted":"0","num_feature":"61","num_nodes":"111","size_leaf_vector":"1"}},{"base_weights":[3.7295704E-3,9.99734E-1,-6.818203E-1,1.4333688E0,2.06198E-1,1.5304037E0,-7.2990316E-1,1.662785E0,7.066421E-1,1.6553205E0,-5.9796304E-1,-3.068437E-2,1.6226145E0,1.1271542E0,-7.4656034E-1,1.666434E0,-2.9581895E-2,1.5233806E0,2.263249E-3,1.683341E0,-3.5692376E-1,-6.7389464E-1,8.068618E-1,-2.870642E-2,8.413253E-2,1.178634E-1,1.5577161E0,5.282137E-4,-7.4696624E-1,1.6857747E0,1.4384768E0,1.5709863E0,-3.3969935E-2,-7.691654E-2,2.4155582E-1,2.9187635E-2,8.442044E-2,-3.236378E-2,3.5123487E-3,2.989843E-1,-7.090595E-1,1.1848173E0,-5.9742254E-1,2.584574E-2,-0E0,8.113576E-2,2.9539779E-2,-7.4738055E-1,-1.0046079E-2,8.435669E-2,3.0130375E-2,1.4793245E-1,8.427983E-2,-4.4954803E-2,1.5998844E0,8.530728E-1,-2.4777168E-1,-5.755238E-1,1.2157125E0,4.6126506E-1,-7.2058547E-1,1.528192E-1,1.5319608E0,-4.319474E-2,-4.243843E-3,-8.2888035E-3,2.723287E-3,-4.734503E-1,-3.738753E-2,9.940807E-1,-5.425588E-1,1.6436882E0,3.3621326E-2,-5.262236E-2,1.2780458E0,1.4581323E0,-4.742404E-1,5.850174E-3,-3.6971137E-2,8.382E-2,7.591687E-3,7.274964E-2,-3.023578E-2,-7.3004216E-1,6.7438744E-2,6.774994E-2,-4.54873E-1,8.4834486E-2,3.0052617E-2,4.8955907E-3,-3.5622504E-2,8.091105E-2,-1.5409397E-2,-4.2235915E-2,4.25801E-3,2.918133E-2,8.340485E-2,-6.5944366E-2,6.997028E-2,7.568119E-2,-1.2479378E-2,3.9240727E-3,7.193731E-2,1.7108059E-2,8.145294E-2,-3.619222E-2,-7.6218083E-4,1.0480192E-2,-3.6798082E-2,7.644885E-2,-3.2963008E-2,-3.775144E-2,4.519987E-4],"categories":[],"categories_nodes":[],"categories_segments":[],"categories_sizes":[],"default_left":[0,0,0,0,0,0,0,0,0,0,0,0,0,0,0,0,0,0,0,0,0,0,0,0,0,0,0,0,0,0,0,0,0,0,0,0,0,0,0,0,0,0,0,0,0,0,0,0,0,0,0,0,0,0,0,0,0,0,0,0,0,0,0,0,0,0,0,0,0,0,0,0,0,0,0,0,0,0,0,0,0,0,0,0,0,0,0,0,0,0,0,0,0,0,0,0,0,0,0,0,0,0,0,0,0,0,0,0,0,0,0,0,0],"id":4,"left_children":[1,3,5,7,9,11,13,15,17,19,21,-1,23,25,27,29,-1,31,33,35,37,39,41,-1,-1,43,45,-1,47,49,51,53,-1,-1,55,-1,-1,-1,-1,57,59,61,63,-1,65,-1,-1,67,-1,-1,-1,69,-1,-1,71,73,75,77,79,81,83,85,87,-1,-1,-1,-1,89,-1,91,93,95,97,99,101,103,105,-1,-1,-1,-1,-1,-1,107,109,-1,111,-1,-1,-1,-1,-1,-1,-1,-1,-1,-1,-1,-1,-1,-1,-1,-1,-1,-1,-1,-1,-1,-1,-1,-1,-1,-1],"loss_changes":[6.975624E3,1.4327373E3,6.4468286E2,4.4757275E2,1.7176235E3,2.6601044E1,1.8402124E2,1.7924316E1,3.7263403E2,3.039148E1,1.01654175E2,0E0,1.7430481E1,2.2680641E1,1.8859863E0,6.2700195E0,0E0,3.2615967E1,1.2890172E2,1.6794434E0,1.0954102E0,3.104303E1,2.6773676E1,0E0,0E0,8.3264315E-1,1.1453629E0,0E0,1.0825195E0,1.5175781E0,5.282675E1,2.2494446E1,0E0,0E0,9.0939224E1,0E0,0E0,0E0,0E0,2.6417652E1,1.2080383E1,1.3569218E1,1.3341699E0,0E0,1.4255852E-1,0E0,0E0,1.18652344E-1,0E0,0E0,0E0,1.694372E1,0E0,0E0,1.9742065E1,5.2150757E1,6.588354E1,2.0783324E0,7.4044895E0,1.0498533E1,6.531769E0,8.742472E0,3.1974945E0,0E0,0E0,0E0,0E0,1.6333208E0,0E0,1.1196098E1,3.182633E0,6.1238403E0,1.8478825E1,1.3825199E1,1.747023E1,3.0604591E0,1.7100166E1,0E0,0E0,0E0,0E0,0E0,0E0,4.9403076E0,1.2778045E1,0E0,1.1953936E0,0E0,0E0,0E0,0E0,0E0,0E0,0E0,0E0,0E0,0E0,0E0,0E0,0E0,0E0,0E0,0E0,0E0,0E0,0E0,0E0,0E0,0E0,0E0,0E0,0E0,0E0],"parents":[2147483647,0,0,1,1,2,2,3,3,4,4,5,5,6,6,7,7,8,8,9,9,10,10,12,12,13,13,14,14,15,15,17,17,18,18,19,19,20,20,21,21,22,22,25,25,26,26,28,28,29,29,30,30,31,31,34,34,39,39,40,40,41,41,42,42,44,44,47,47,51,51,54,54,55,55,56,56,57,57,58,58,59,59,60,60,61,61,62,62,67,67,69,69,70,70,71,71,72,72,73,73,74,74,75,75,76,76,83,83,84,84,86,86],"right_children":[2,4,6,8,10,12,14,16,18,20,22,-1,24,26,28,30,-1,32,34,36,38,40,42,-1,-1,44,46,-1,48,50,52,54,-1,-1,56,-1,-1,-1,-1,58,60,62,64,-1,66,-1,-1,68,-1,-1,-1,70,-1,-1,72,74,76,78,80,82,84,86,88,-1,-1,-1,-1,90,-1,92,94,96,98,100,102,104,106,-1,-1,-1,-1,-1,-1,108,110,-1,112,-1,-1,-1,-1,-1,-1,-1,-1,-1,-1,-1,-1,-1,-1,-1,-1,-1,-1,-1,-1,-1,-1,-1,-1,-1,-1],"split_conditions":[2.907E3,1.62065E-1,1.13E2,1.148E3,8.444691E0,4.636E3,2.869E3,2.17243E-1,5.1821E-2,9.0816E-1,4.647E3,-3.068437E-2,1.690701E0,3.55659E-1,1.21E2,2.808E3,-2.9581895E-2,4.109E3,4.2225E-2,6.2953E-2,9.42906E-1,1.188E3,1.721E3,-2.870642E-2,8.413253E-2,-1.01693E-1,2.0084E-1,5.282137E-4,1.024E3,4.993E3,-4.8323E-1,4.695E-2,-3.3969935E-2,-7.691654E-2,5.7079067E3,2.9187635E-2,8.442044E-2,-3.236378E-2,3.5123487E-3,7.48933E-1,1E3,-2.64824E-1,1.20278E-1,2.584574E-2,-1.884E-3,8.113576E-2,2.9539779E-2,3.104E3,-1.0046079E-2,8.435669E-2,3.0130375E-2,9.93563E-1,8.427983E-2,-4.4954803E-2,5E3,6.8438E-2,8.60895E-1,6.19836E-1,9.96669E-1,-1.067961E0,9.79995E-1,1.3104042E2,2.7E1,-4.319474E-2,-4.243843E-3,-8.2888035E-3,2.723287E-3,1.504E3,-3.738753E-2,3.2389E-2,-2.7153E-2,-5.9967E-1,3.96E2,1.52E3,-2.383629E1,2.27646E-1,1.2134237E1,5.850174E-3,-3.6971137E-2,8.382E-2,7.591687E-3,7.274964E-2,-3.023578E-2,7.24278E-1,1.78042E2,6.774994E-2,1.486E3,8.4834486E-2,3.0052617E-2,4.8955907E-3,-3.5622504E-2,8.091105E-2,-1.5409397E-2,-4.2235915E-2,4.25801E-3,2.918133E-2,8.340485E-2,-6.5944366E-2,6.997028E-2,7.568119E-2,-1.2479378E-2,3.9240727E-3,7.193731E-2,1.7108059E-2,8.145294E-2,-3.619222E-2,-7.6218083E-4,1.0480192E-2,-3.6798082E-2,7.644885E-2,-3.2963008E-2,-3.775144E-2,4.519987E-4],"split_indices":[24,31,36,36,43,12,12,23,31,2,12,0,1,11,36,24,0,12,21,29,49,24,24,0,0,54,23,0,44,39,6,29,0,0,5,0,0,0,0,11,12,34,3,0,2,0,0,12,0,0,0,4,0,0,16,29,50,22,4,0,56,1,16,0,0,0,0,36,0,34,2,6,24,12,2,23,43,0,0,0,0,0,0,50,1,0,36,0,0,0,0,0,0,0,0,0,0,0,0,0,0,0,0,0,0,0,0,0,0,0,0,0,0],"split_type":[0,0,0,0,0,0,0,0,0,0,0,0,0,0,0,0,0,0,0,0,0,0,0,0,0,0,0,0,0,0,0,0,0,0,0,0,0,0,0,0,0,0,0,0,0,0,0,0,0,0,0,0,0,0,0,0,0,0,0,0,0,0,0,0,0,0,0,0,0,0,0,0,0,0,0,0,0,0,0,0,0,0,0,0,0,0,0,0,0,0,0,0,0,0,0,0,0,0,0,0,0,0,0,0,0,0,0,0,0,0,0,0,0],"sum_hessian":[1.0214E4,4.164E3,6.05E3,2.692E3,1.472E3,1.28E2,5.922E3,2.045E3,6.47E2,5.25E2,9.47E2,5E0,1.23E2,5.2E1,5.87E3,2.042E3,3E0,2.99E2,3.48E2,5.18E2,7E0,8.99E2,4.8E1,3E0,1.2E2,1.6E1,3.6E1,3E0,5.867E3,1.876E3,1.66E2,2.93E2,6E0,4.6E1,3.02E2,3E0,5.15E2,4E0,3E0,3.1E1,8.68E2,3.8E1,1E1,3E0,1.3E1,3.3E1,3E0,5.862E3,5E0,1.873E3,3E0,2.7E1,1.39E2,3E0,2.9E2,1.34E2,1.68E2,1.6E1,1.5E1,8E0,8.6E2,1E1,2.8E1,6E0,4E0,3E0,1E1,1E1,5.852E3,1.2E1,1.5E1,2.82E2,8E0,4.3E1,9.1E1,1.9E1,1.49E2,3E0,1.3E1,1E1,5E0,4E0,4E0,8.5E2,1E1,3E0,7E0,2.3E1,5E0,3E0,7E0,8E0,4E0,1E1,5E0,7E0,2.75E2,4E0,4E0,4E0,3.9E1,1.1E1,8E1,3E0,1.6E1,9.6E1,5.3E1,5E0,8.45E2,3E0,7E0,4E0,3E0],"tree_param":{"num_deleted":"0","num_feature":"61","num_nodes":"113","size_leaf_vector":"1"}},{"base_weights":[8.195054E-3,9.58313E-1,-6.5000784E-1,1.3664159E0,1.8772066E-1,8.004024E-2,-6.951506E-1,4.077319E-1,1.4893779E0,1.480109E0,-5.818886E-1,1.0912921E0,-7.089173E-1,7.982174E-2,-3.8077615E-2,-7.093322E-2,1.513998E0,1.5999066E0,-3.6801693E-1,-6.660247E-1,8.578736E-1,1.5557256E-1,1.4926829E0,3.7222765E-3,-7.0960826E-1,3.5117158E-1,-6.16339E-1,-3.582003E-1,1.5336993E0,8.025747E-2,2.5323108E-2,-5.7463545E-1,6.501403E-2,-6.851344E-1,1.0301889E0,1.3817446E0,9.996437E-2,2.0698136E-2,2.4072404E-3,7.9575084E-2,1.8903794E-2,-7.1001107E-1,-3.5518017E-3,1.1271732E0,-2.2426924E-1,-2.7591276E-1,-3.9865416E-2,7.200178E-2,-7.003989E-2,1.5552317E0,4.4457182E-1,-3.6955018E-2,1.0857588E-2,-6.941689E-1,6.961378E-2,7.525834E-2,-1.6784583E-3,1.5420094E0,-1.0239306E-3,8.0948204E-1,-4.458157E-1,-4.1501543E-1,-7.103733E-1,1.5872192E0,4.3402177E-1,-3.3290213E-1,5.7717662E-2,-5.6458545E-1,9.0390843E-1,1.5611652E0,-1.51795E-1,9.6491474E-1,-1.0228833E0,-7.0273083E-1,-7.787083E-2,8.1592545E-2,4.001682E-2,7.277651E-2,5.976415E-3,7.737276E-3,-4.2650487E-2,5.7184924E-3,-3.3625957E-2,-5.880071E-1,-3.5568174E-2,8.6468205E-2,3.7865102E-2,5.0982077E-2,-1.9745812E-2,-5.313387E-3,-4.347546E-2,5.9567583E-3,-3.805077E-2,7.473595E-2,3.1060416E-3,7.834288E-2,2.8310923E-2,-3.219175E-2,2.9960686E-2,1.7502371E-2,8.12823E-2,-7.030811E-2,-5.4202382E-3,-3.529617E-2,-3.2413864E-4,4.7735676E-2,-3.269938E-2,4.5903023E-2,-3.4828063E-2],"categories":[],"categories_nodes":[],"categories_segments":[],"categories_sizes":[],"default_left":[0,0,0,0,0,0,0,0,0,0,0,0,0,0,0,0,0,0,0,0,0,0,0,0,0,0,0,0,0,0,0,0,0,0,0,0,0,0,0,0,0,0,0,0,0,0,0,0,0,0,0,0,0,0,0,0,0,0,0,0,0,0,0,0,0,0,0,0,0,0,0,0,0,0,0,0,0,0,0,0,0,0,0,0,0,0,0,0,0,0,0,0,0,0,0,0,0,0,0,0,0,0,0,0,0,0,0,0,0],"id":5,"left_children":[1,3,5,7,9,-1,11,13,15,17,19,21,23,-1,25,-1,27,29,31,33,35,37,39,-1,41,43,45,47,49,-1,-1,51,-1,53,55,57,59,-1,-1,-1,-1,61,-1,63,65,67,-1,-1,-1,69,71,-1,-1,73,-1,-1,-1,75,-1,77,79,81,83,85,87,89,-1,91,93,95,97,99,101,103,105,-1,-1,-1,-1,-1,-1,-1,-1,107,-1,-1,-1,-1,-1,-1,-1,-1,-1,-1,-1,-1,-1,-1,-1,-1,-1,-1,-1,-1,-1,-1,-1,-1,-1],"loss_changes":[6.4469717E3,1.326383E3,6.198147E2,3.243203E2,1.455106E3,0E0,1.4758203E2,1.6714618E2,1.7714014E2,1.21596924E2,1.1163385E2,1.6880058E1,3.3242188E0,0E0,5.201315E1,0E0,9.007471E1,1.9168701E0,1.2394461E1,2.8774353E1,1.9963085E1,3.5023314E-1,2.7259445E0,0E0,1.394043E0,6.196601E1,5.402111E0,5.0759014E1,5.5368652E1,0E0,0E0,4.249549E0,0E0,1.6999939E1,5.2503014E0,6.925537E0,8.916541E0,0E0,0E0,0E0,0E0,2.2509766E-1,0E0,1.7923004E1,1.2283241E1,1.2056194E1,0E0,0E0,0E0,2.4201172E1,3.7633038E1,0E0,0E0,4.378784E0,0E0,0E0,0E0,2.4984741E-1,0E0,4.12595E0,3.38091E0,1.4959173E0,1.6723633E-1,2.570572E0,1.2601207E1,8.931042E0,0E0,3.9153414E0,3.2328215E0,1.2174805E1,3.7159934E0,1.3858814E1,4.252612E0,1.7979736E0,8.327857E0,0E0,0E0,0E0,0E0,0E0,0E0,0E0,0E0,9.445791E0,0E0,0E0,0E0,0E0,0E0,0E0,0E0,0E0,0E0,0E0,0E0,0E0,0E0,0E0,0E0,0E0,0E0,0E0,0E0,0E0,0E0,0E0,0E0,0E0,0E0],"parents":[2147483647,0,0,1,1,2,2,3,3,4,4,6,6,7,7,8,8,9,9,10,10,11,11,12,12,14,14,16,16,17,17,18,18,19,19,20,20,21,21,22,22,24,24,25,25,26,26,27,27,28,28,31,31,33,33,34,34,35,35,36,36,41,41,43,43,44,44,45,45,49,49,50,50,53,53,57,57,59,59,60,60,61,61,62,62,63,63,64,64,65,65,67,67,68,68,69,69,70,70,71,71,72,72,73,73,74,74,83,83],"right_children":[2,4,6,8,10,-1,12,14,16,18,20,22,24,-1,26,-1,28,30,32,34,36,38,40,-1,42,44,46,48,50,-1,-1,52,-1,54,56,58,60,-1,-1,-1,-1,62,-1,64,66,68,-1,-1,-1,70,72,-1,-1,74,-1,-1,-1,76,-1,78,80,82,84,86,88,90,-1,92,94,96,98,100,102,104,106,-1,-1,-1,-1,-1,-1,-1,-1,108,-1,-1,-1,-1,-1,-1,-1,-1,-1,-1,-1,-1,-1,-1,-1,-1,-1,-1,-1,-1,-1,-1,-1,-1,-1],"split_conditions":[2.907E3,1.62065E-1,2.249E3,-5.531383E0,1.094E3,8.004024E-2,2.313E3,1.1805E-2,1E0,-3E-2,4.68E3,-1E0,2.869E3,7.982174E-2,2.2E1,-7.093322E-2,-1.29655E-1,-8.41423E-1,2.29292E-1,2.83994E-1,1.508E3,4.802E-3,6.129474E0,3.7222765E-3,1.024E3,1.61E3,2.202488E2,-1.489897E0,5E3,8.025747E-2,2.5323108E-2,7.3019E0,6.501403E-2,2.91E2,1.1702266E1,2.6E1,-4.13506E-1,2.0698136E-2,2.4072404E-3,7.9575084E-2,1.8903794E-2,3.104E3,-3.5518017E-3,7.079506E1,1.32053E-1,2.6243E-2,-3.9865416E-2,7.200178E-2,-7.003989E-2,4.90643E-1,-4.316462E3,-3.6955018E-2,1.0857588E-2,9.76979E-1,6.961378E-2,7.525834E-2,-1.6784583E-3,1.743059E0,-1.0239306E-3,1.6875241E2,-2.47272E2,2.792E-3,2.931E3,1.508E3,5.3E1,9.74323E-1,5.7717662E-2,-1.802125E2,2.8E1,3.3093803E1,-8.5801E-2,8.8836E-2,2.4E1,2.97E-4,1.78042E2,8.1592545E-2,4.001682E-2,7.277651E-2,5.976415E-3,7.737276E-3,-4.2650487E-2,5.7184924E-3,-3.3625957E-2,1.620401E0,-3.5568174E-2,8.6468205E-2,3.7865102E-2,5.0982077E-2,-1.9745812E-2,-5.313387E-3,-4.347546E-2,5.9567583E-3,-3.805077E-2,7.473595E-2,3.1060416E-3,7.834288E-2,2.8310923E-2,-3.219175E-2,2.9960686E-2,1.7502371E-2,8.12823E-2,-7.030811E-2,-5.4202382E-3,-3.529617E-2,-3.2413864E-4,4.7735676E-2,-3.269938E-2,4.5903023E-2,-3.4828063E-2],"split_indices":[24,31,32,0,12,0,12,31,44,0,12,45,12,0,16,0,2,26,31,40,24,31,46,0,44,24,1,0,16,0,0,7,0,42,19,16,6,0,0,0,0,12,0,9,31,20,0,0,0,40,26,0,0,57,0,0,0,6,0,19,18,2,24,24,42,54,0,10,16,7,3,31,59,28,1,0,0,0,0,0,0,0,0,1,0,0,0,0,0,0,0,0,0,0,0,0,0,0,0,0,0,0,0,0,0,0,0,0,0],"split_type":[0,0,0,0,0,0,0,0,0,0,0,0,0,0,0,0,0,0,0,0,0,0,0,0,0,0,0,0,0,0,0,0,0,0,0,0,0,0,0,0,0,0,0,0,0,0,0,0,0,0,0,0,0,0,0,0,0,0,0,0,0,0,0,0,0,0,0,0,0,0,0,0,0,0,0,0,0,0,0,0,0,0,0,0,0,0,0,0,0,0,0,0,0,0,0,0,0,0,0,0,0,0,0,0,0,0,0,0,0],"sum_hessian":[1.0307E4,4.218E3,6.089E3,2.757E3,1.461E3,1.19E2,5.97E3,3.14E2,2.443E3,5.45E2,9.16E2,4.5E1,5.925E3,8.5E1,2.29E2,2E1,2.423E3,5.12E2,3.3E1,8.66E2,5E1,1.4E1,3.1E1,5E0,5.92E3,1.37E2,9.2E1,2.5E1,2.398E3,5.09E2,3E0,3E1,3E0,8.57E2,9E0,2.9E1,2.1E1,3E0,1.1E1,2.8E1,3E0,5.916E3,4E0,5.8E1,7.9E1,3.3E1,5.9E1,9E0,1.6E1,2.351E3,4.7E1,2.5E1,5E0,8.54E2,3E0,6E0,3E0,2.6E1,3E0,9E0,1.2E1,9E0,5.907E3,3.4E1,2.4E1,7.4E1,5E0,2.7E1,6E0,2.343E3,8E0,3.5E1,1.2E1,8.42E2,1.2E1,2.2E1,4E0,4E0,5E0,5E0,7E0,3E0,6E0,5.3E1,5.854E3,2.8E1,6E0,1.4E1,1E1,5.3E1,2.1E1,6E0,2.1E1,3E0,3E0,2.329E3,1.4E1,5E0,3E0,1.9E1,1.6E1,8E0,4E0,8.38E2,4E0,4E0,8E0,3E0,5E1],"tree_param":{"num_deleted":"0","num_feature":"61","num_nodes":"109","size_leaf_vector":"1"}},{"base_weights":[5.4733234E-4,9.0275425E-1,-6.1600125E-1,1.3062352E0,1.7155135E-1,7.6090775E-2,-6.6043746E-1,1.5057541E0,7.3853564E-1,1.4908011E0,-5.3962755E-1,1.134613E0,-6.740106E-1,1.5181919E0,6.7197937E-1,1.3711244E0,1.1966095E-1,1.5212381E0,-3.8849536E-1,-6.055888E-1,8.4655607E-1,1.656574E-1,7.3945515E-2,3.5671832E-3,-6.746707E-1,7.6213956E-2,1.2545166E0,1.2934558E0,-2.8033072E-1,1.4407197E0,-4.3196242E-2,-7.075002E-2,3.1998405E-1,7.630982E-2,2.4373489E-2,-3.3019345E-2,4.5732874E-3,-6.2717485E-1,1.0680888E0,1.1324241E0,-4.0597513E-2,2.0661384E-2,2.0031775E-3,-3.3752665E-2,-3.409729E-3,7.612893E-2,-3.306311E-1,7.728224E-2,-6.8318873E-4,5.6686457E-2,-4.1396078E-2,1.4740686E0,5.784815E-2,6.1420083E-2,1.0742658E0,5.655208E-1,-6.452627E-1,7.278033E-2,-2.2924428E-3,5.354182E-1,7.688638E-2,-4.456343E-2,2.139118E-2,7.559468E-1,1.513131E0,-6.0494263E-2,6.67006E-2,3.6337978E-1,-5.1592773E-1,1.3554447E0,1.5795717E-1,-3.0910388E-1,7.4929446E-2,-6.5352976E-1,3.3949932E-1,-9.451713E-2,7.31557E-2,7.1540765E-2,-2.9554361E-2,7.62451E-2,4.7010984E-2,5.4417003E-2,-1.5556564E-2,1.3797836E-3,-3.804253E-2,-9.273286E-3,7.3429346E-2,-3.280908E-2,7.36844E-2,-2.7927632E-2,2.749153E-3,-3.294923E-2,2.1025233E-2,6.881332E-2,-2.6890708E-2,2.8374616E-2,-3.787202E-2],"categories":[],"categories_nodes":[],"categories_segments":[],"categories_sizes":[],"default_left":[0,0,0,0,0,0,0,0,0,0,0,0,0,0,0,0,0,0,0,0,0,0,0,0,0,0,0,0,0,0,0,0,0,0,0,0,0,0,0,0,0,0,0,0,0,0,0,0,0,0,0,0,0,0,0,0,0,0,0,0,0,0,0,0,0,0,0,0,0,0,0,0,0,0,0,0,0,0,0,0,0,0,0,0,0,0,0,0,0,0,0,0,0,0,0,0,0],"id":6,"left_children":[1,3,5,7,9,-1,11,13,15,17,19,21,23,25,27,29,31,33,35,37,39,41,-1,-1,43,-1,45,47,49,51,-1,-1,53,-1,-1,-1,-1,55,57,59,-1,-1,-1,-1,-1,-1,61,-1,-1,-1,-1,63,65,67,69,71,73,-1,-1,75,-1,-1,-1,77,79,-1,-1,81,83,85,87,89,-1,91,93,95,-1,-1,-1,-1,-1,-1,-1,-1,-1,-1,-1,-1,-1,-1,-1,-1,-1,-1,-1,-1,-1],"loss_changes":[5.6905107E3,1.2248728E3,5.782129E2,3.017661E2,1.3875925E3,0E0,1.4578394E2,1.9282715E1,2.7294907E2,3.0333984E1,8.8357056E1,1.4602943E1,3.0163574E0,9.3847656E-1,1.8810894E1,5.4966736E1,1.0917282E2,1.6688232E0,1.291771E0,3.379135E1,2.1812536E1,3.4232843E-1,0E0,0E0,1.2497559E0,0E0,2.1868507E1,6.437498E0,1.0974299E1,1.5210815E1,0E0,0E0,6.1059902E1,0E0,0E0,0E0,0E0,1.993988E1,5.387763E0,8.1641655E0,0E0,0E0,0E0,0E0,0E0,0E0,3.8293958E0,0E0,0E0,0E0,0E0,7.802124E0,1.6186935E1,4.114113E1,2.0246284E1,1.200735E1,7.5314026E0,0E0,0E0,1.0209751E1,0E0,0E0,0E0,1.8202057E1,4.0350342E-1,0E0,0E0,7.621036E1,1.0877148E1,1.1035553E1,2.2472506E1,8.076362E-1,0E0,5.4976196E0,8.100577E0,5.276312E0,0E0,0E0,0E0,0E0,0E0,0E0,0E0,0E0,0E0,0E0,0E0,0E0,0E0,0E0,0E0,0E0,0E0,0E0,0E0,0E0,0E0],"parents":[2147483647,0,0,1,1,2,2,3,3,4,4,6,6,7,7,8,8,9,9,10,10,11,11,12,12,13,13,14,14,15,15,16,16,17,17,18,18,19,19,20,20,21,21,24,24,26,26,27,27,28,28,29,29,32,32,37,37,38,38,39,39,46,46,51,51,52,52,53,53,54,54,55,55,56,56,59,59,63,63,64,64,67,67,68,68,69,69,70,70,71,71,73,73,74,74,75,75],"right_children":[2,4,6,8,10,-1,12,14,16,18,20,22,24,26,28,30,32,34,36,38,40,42,-1,-1,44,-1,46,48,50,52,-1,-1,54,-1,-1,-1,-1,56,58,60,-1,-1,-1,-1,-1,-1,62,-1,-1,-1,-1,64,66,68,70,72,74,-1,-1,76,-1,-1,-1,78,80,-1,-1,82,84,86,88,90,-1,92,94,96,-1,-1,-1,-1,-1,-1,-1,-1,-1,-1,-1,-1,-1,-1,-1,-1,-1,-1,-1,-1,-1],"split_conditions":[2.907E3,1.62065E-1,2.249E3,9.01E2,8.444691E0,7.6090775E-2,2.313E3,3.089E3,5.062E-2,2.43E-1,4.734E3,-1E0,2.869E3,2.985E3,9.99967E-1,4.109E3,4.2225E-2,-7.57593E-1,9.62E-1,2.83994E-1,1.721E3,9.90856E-1,7.3945515E-2,3.5671832E-3,2E0,7.6213956E-2,1.56E2,3.281E3,2.808E3,5E3,-4.3196242E-2,-7.075002E-2,-3.038E0,7.630982E-2,2.4373489E-2,-3.3019345E-2,4.5732874E-3,6.66E-1,3.8E1,1.2158775E1,-4.0597513E-2,2.0661384E-2,2.0031775E-3,-3.3752665E-2,-3.409729E-3,7.612893E-2,-2.347802E0,7.728224E-2,-6.8318873E-4,5.6686457E-2,-4.1396078E-2,7.31173E-1,3.96E2,2.3E1,2.2E1,-4E-6,9.80826E-1,7.278033E-2,-2.2924428E-3,9.90656E-1,7.688638E-2,-4.456343E-2,2.139118E-2,3.2434E-2,2.782E3,-6.0494263E-2,6.67006E-2,1.683E3,2.202488E2,-1.559E-3,9.7039E-2,1.8208E-2,7.4929446E-2,2.312E3,1.8887473E2,2E1,7.31557E-2,7.1540765E-2,-2.9554361E-2,7.62451E-2,4.7010984E-2,5.4417003E-2,-1.5556564E-2,1.3797836E-3,-3.804253E-2,-9.273286E-3,7.3429346E-2,-3.280908E-2,7.36844E-2,-2.7927632E-2,2.749153E-3,-3.294923E-2,2.1025233E-2,6.881332E-2,-2.6890708E-2,2.8374616E-2,-3.787202E-2],"split_indices":[24,31,32,36,43,0,12,32,31,10,12,45,12,32,49,12,21,26,3,40,24,4,0,0,14,0,36,32,24,16,0,0,0,0,0,0,0,22,37,43,0,0,0,0,0,0,0,0,0,0,0,9,24,16,59,20,57,0,0,53,0,0,0,40,24,0,0,24,1,28,31,5,0,36,1,16,0,0,0,0,0,0,0,0,0,0,0,0,0,0,0,0,0,0,0,0,0],"split_type":[0,0,0,0,0,0,0,0,0,0,0,0,0,0,0,0,0,0,0,0,0,0,0,0,0,0,0,0,0,0,0,0,0,0,0,0,0,0,0,0,0,0,0,0,0,0,0,0,0,0,0,0,0,0,0,0,0,0,0,0,0,0,0,0,0,0,0,0,0,0,0,0,0,0,0,0,0,0,0,0,0,0,0,0,0,0,0,0,0,0,0,0,0,0,0,0,0],"sum_hessian":[1.0228E4,4.152E3,6.076E3,2.675E3,1.477E3,1.23E2,5.953E3,1.978E3,6.97E2,5.17E2,9.6E2,4.4E1,5.909E3,1.948E3,3E1,3.44E2,3.53E2,5.09E2,8E0,9.17E2,4.3E1,1.2E1,3.2E1,5E0,5.904E3,1.899E3,4.9E1,1.8E1,1.2E1,3.34E2,1E1,4E1,3.13E2,5.06E2,3E0,5E0,3E0,9.06E2,1.1E1,3.7E1,6E0,3E0,9E0,5.9E3,4E0,4.2E1,7E0,1.5E1,3E0,3E0,9E0,3.26E2,8E0,2.34E2,7.9E1,1.3E1,8.93E2,8E0,3E0,1.6E1,2.1E1,4E0,3E0,1.8E1,3.08E2,4E0,4E0,1.54E2,8E1,6E1,1.9E1,7E0,6E0,8.86E2,7E0,1E1,6E0,1.2E1,6E0,3E2,8E0,7.4E1,8E1,2.5E1,5.5E1,4E0,5.6E1,1.2E1,7E0,4E0,3E0,8.82E2,4E0,3E0,4E0,5E0,5E0],"tree_param":{"num_deleted":"0","num_feature":"61","num_nodes":"97","size_leaf_vector":"1"}},{"base_weights":[-7.280869E-3,8.455184E-1,-5.9023273E-1,1.3390485E0,4.0321618E-1,7.226909E-2,-6.2879556E-1,-1.0382624E0,1.3975617E0,8.966929E-1,-4.6738693E-1,8.843952E-1,-6.403858E-1,-6.64926E-2,6.039203E-2,1.4343574E0,4.2722902E-1,3.0830845E-1,1.1945387E0,1.3754425E0,-6.1094046E-1,-6.845485E-2,1.3508856E0,-6.407643E-1,-2.0713962E-3,6.2065965E-1,1.453697E0,1.273832E0,-2.0543572E-1,7.219835E-2,-9.2344895E-2,2.3734838E-2,1.3190933E0,-3.935418E-3,7.290045E-2,6.7884433E-1,-6.260592E-1,2.3085005E-3,-2.2443596E-2,7.239946E-2,1.54219465E-2,-2.7072138E-1,-6.411374E-1,1.1506912E0,-7.648556E-1,1.4554447E0,1.3700512E-2,1.4430108E-2,1.3655137E0,7.034833E-2,-4.148193E-1,-2.4385966E-1,1.0604588E0,6.840777E-2,-1.9653352E-1,1.3769022E0,2.5855926E-1,6.884007E-2,-6.744079E-3,5.53053E-2,-6.3481784E-1,-2.8860418E-2,7.7533857E-3,-4.0126032E-1,-3.207689E-2,7.046245E-2,-5.2558262E-2,-0E0,-5.002413E-2,8.85418E-1,7.285552E-2,7.3949195E-2,1.4497309E-2,-6.719645E-1,6.209708E-1,-2.9349315E-1,1.1318836E0,1.3872172E0,-3.552706E-2,-2.660784E-1,5.744764E-2,1.4210801E0,1.4840537E-1,-1.3064143E-1,1.1368351E0,-6.385405E-1,-1.4428116E-1,9.173944E-3,-3.0251497E-2,1.5803628E-2,5.7190537E-2,-4.3906476E-2,7.3024197E-3,-3.3676248E-2,7.7618666E-2,-2.3520788E-2,6.3686776E-3,2.578719E-2,6.4298406E-2,7.942672E-2,-5.919663E-3,3.0572244E-3,-2.6047526E-2,7.200424E-2,-1.7054493E-2,6.032225E-2,-3.9020233E-2,3.6471102E-2,-2.796402E-2,-0E0,7.222203E-2,-1.2651525E-2,-3.211748E-2,-2.44373E-2,1.0562698E-2],"categories":[],"categories_nodes":[],"categories_segments":[],"categories_sizes":[],"default_left":[0,0,0,0,0,0,0,0,0,0,0,0,0,0,0,0,0,0,0,0,0,0,0,0,0,0,0,0,0,0,0,0,0,0,0,0,0,0,0,0,0,0,0,0,0,0,0,0,0,0,0,0,0,0,0,0,0,0,0,0,0,0,0,0,0,0,0,0,0,0,0,0,0,0,0,0,0,0,0,0,0,0,0,0,0,0,0,0,0,0,0,0,0,0,0,0,0,0,0,0,0,0,0,0,0,0,0,0,0,0,0,0,0,0,0],"id":7,"left_children":[1,3,5,7,9,-1,11,13,15,17,19,21,23,-1,-1,25,27,29,31,33,35,37,39,41,-1,43,45,47,49,-1,51,53,55,-1,-1,57,59,-1,-1,-1,-1,61,63,65,67,69,-1,-1,71,-1,73,75,77,-1,79,81,83,-1,-1,-1,85,-1,-1,87,-1,-1,-1,-1,-1,89,-1,-1,-1,91,93,95,97,99,-1,101,-1,103,105,107,109,111,113,-1,-1,-1,-1,-1,-1,-1,-1,-1,-1,-1,-1,-1,-1,-1,-1,-1,-1,-1,-1,-1,-1,-1,-1,-1,-1,-1,-1],"loss_changes":[5.120528E3,9.121726E2,4.8108447E2,2.763562E2,9.4863855E2,0E0,1.0585913E2,3.305559E1,6.807422E1,2.4640576E2,2.1213504E2,2.0667507E1,1.2563477E0,0E0,0E0,2.8128906E1,3.8932873E1,2.1639609E2,1.3618445E2,7.2164154E0,1.4888611E1,7.586786E-1,2.515728E0,5.576172E-1,0E0,3.39652E1,3.168213E0,2.2406464E0,1.4664065E1,0E0,6.1659653E1,2.7334179E1,5.128601E1,0E0,0E0,5.4214096E0,1.1790955E1,0E0,0E0,0E0,0E0,1.1757109E0,2.0947266E-1,2.0304295E1,2.4046001E0,1.9506836E-1,0E0,0E0,2.8115425E0,0E0,1.0543611E1,2.1552643E1,2.4779587E1,0E0,7.609588E0,4.310437E1,1.5631288E1,0E0,0E0,0E0,1.1644592E0,0E0,0E0,1.7021427E0,0E0,0E0,0E0,0E0,0E0,6.694021E-1,0E0,0E0,0E0,5.429472E0,1.0779019E1,2.258139E1,2.0091152E-1,1.0943779E1,0E0,6.416233E0,0E0,2.6488281E1,2.9482937E1,1.2187952E1,4.8569756E0,8.1256104E-1,9.8828423E-1,0E0,0E0,0E0,0E0,0E0,0E0,0E0,0E0,0E0,0E0,0E0,0E0,0E0,0E0,0E0,0E0,0E0,0E0,0E0,0E0,0E0,0E0,0E0,0E0,0E0,0E0,0E0,0E0],"parents":[2147483647,0,0,1,1,2,2,3,3,4,4,6,6,7,7,8,8,9,9,10,10,11,11,12,12,15,15,16,16,17,17,18,18,19,19,20,20,21,21,22,22,23,23,25,25,26,26,27,27,28,28,30,30,31,31,32,32,35,35,36,36,41,41,42,42,43,43,44,44,45,45,48,48,50,50,51,51,52,52,54,54,55,55,56,56,60,60,63,63,69,69,73,73,74,74,75,75,76,76,77,77,79,79,81,81,82,82,83,83,84,84,85,85,86,86],"right_children":[2,4,6,8,10,-1,12,14,16,18,20,22,24,-1,-1,26,28,30,32,34,36,38,40,42,-1,44,46,48,50,-1,52,54,56,-1,-1,58,60,-1,-1,-1,-1,62,64,66,68,70,-1,-1,72,-1,74,76,78,-1,80,82,84,-1,-1,-1,86,-1,-1,88,-1,-1,-1,-1,-1,90,-1,-1,-1,92,94,96,98,100,-1,102,-1,104,106,108,110,112,114,-1,-1,-1,-1,-1,-1,-1,-1,-1,-1,-1,-1,-1,-1,-1,-1,-1,-1,-1,-1,-1,-1,-1,-1,-1,-1,-1,-1],"split_conditions":[2.907E3,2.682E-1,4.498E-1,3E0,2E1,7.226909E-2,2.869E3,4.87E2,8.954836E1,4.402E-1,6.32094E-1,8.66432E-1,4E-4,-6.64926E-2,6.039203E-2,2E0,8.68281E-1,4.254E3,5.86706E-1,9.87359E-1,1.188E3,3.31839E-1,6.094827E0,3.104E3,-2.0713962E-3,1.10022E-1,9.9995E-1,1.7324355E2,3.227E3,7.219835E-2,4.909E3,7.4836E-1,2.808E3,-3.935418E-3,7.290045E-2,2.73298E-1,-5.65594E-1,2.3085005E-3,-2.2443596E-2,7.239946E-2,1.54219465E-2,1.2E2,1.24E2,4.995E3,-4.8936E-2,-2.51004E-1,1.3700512E-2,1.4430108E-2,2.709E3,7.034833E-2,4.413E3,1.7460056E1,1.766E3,6.840777E-2,7.20979E-1,4E0,1.5E1,6.884007E-2,-6.744079E-3,5.53053E-2,6.426795E0,-2.8860418E-2,7.7533857E-3,2.931E3,-3.207689E-2,7.046245E-2,-5.2558262E-2,-0E0,-5.002413E-2,-2.49604E-1,7.285552E-2,7.3949195E-2,1.4497309E-2,3.3E1,6.046102E0,1.2104526E1,2.801E-3,1.3758111E1,-3.552706E-2,4.375E3,5.744764E-2,2.56776E-1,2.869E3,-1.2594E-2,8.5964E-2,1.274E3,-2.095675E0,9.173944E-3,-3.0251497E-2,1.5803628E-2,5.7190537E-2,-4.3906476E-2,7.3024197E-3,-3.3676248E-2,7.7618666E-2,-2.3520788E-2,6.3686776E-3,2.578719E-2,6.4298406E-2,7.942672E-2,-5.919663E-3,3.0572244E-3,-2.6047526E-2,7.200424E-2,-1.7054493E-2,6.032225E-2,-3.9020233E-2,3.6471102E-2,-2.796402E-2,-0E0,7.222203E-2,-1.2651525E-2,-3.211748E-2,-2.44373E-2,1.0562698E-2],"split_indices":[24,33,33,44,37,0,12,12,4,33,51,9,15,0,0,42,50,39,11,4,24,50,46,12,0,23,51,9,39,0,12,49,24,0,0,3,6,0,0,0,0,42,36,16,34,34,0,0,36,0,12,10,24,0,60,16,44,0,0,0,46,0,0,24,0,0,0,0,0,0,0,0,0,59,21,43,23,21,0,39,0,34,12,34,3,24,0,0,0,0,0,0,0,0,0,0,0,0,0,0,0,0,0,0,0,0,0,0,0,0,0,0,0,0,0],"split_type":[0,0,0,0,0,0,0,0,0,0,0,0,0,0,0,0,0,0,0,0,0,0,0,0,0,0,0,0,0,0,0,0,0,0,0,0,0,0,0,0,0,0,0,0,0,0,0,0,0,0,0,0,0,0,0,0,0,0,0,0,0,0,0,0,0,0,0,0,0,0,0,0,0,0,0,0,0,0,0,0,0,0,0,0,0,0,0,0,0,0,0,0,0,0,0,0,0,0,0,0,0,0,0,0,0,0,0,0,0,0,0,0,0,0,0],"sum_hessian":[1.0298E4,4.181E3,6.117E3,1.975E3,2.206E3,1.13E2,6.004E3,4.7E1,1.928E3,1.408E3,7.98E2,4.5E1,5.959E3,4.2E1,5E0,1.857E3,7.1E1,4.74E2,9.34E2,5.7E1,7.41E2,1.5E1,3E1,5.955E3,4E0,4.4E1,1.813E3,3E1,4.1E1,1.23E2,3.51E2,9E1,8.44E2,3E0,5.4E1,8E0,7.33E2,1.2E1,3E0,2.7E1,3E0,7E0,5.948E3,3.2E1,1.2E1,1.81E3,3E0,3E0,2.7E1,4E0,3.7E1,3.11E2,4E1,1.2E1,7.8E1,8E2,4.4E1,4E0,4E0,3E0,7.3E2,4E0,3E0,1.2E1,5.936E3,2.9E1,3E0,3E0,9E0,7E0,1.803E3,2.4E1,3E0,3E1,7E0,3.01E2,1E1,3.4E1,6E0,7.5E1,3E0,7.72E2,2.8E1,3.1E1,1.3E1,7.24E2,6E0,3E0,9E0,3E0,4E0,2.4E1,6E0,3E0,4E0,2.12E2,8.9E1,3E0,7E0,3E1,4E0,3.3E1,4.2E1,7.64E2,8E0,1.3E1,1.5E1,1E1,2.1E1,3E0,1E1,8E0,7.16E2,3E0,3E0],"tree_param":{"num_deleted":"0","num_feature":"61","num_nodes":"115","size_leaf_vector":"1"}},{"base_weights":[2.1481344E-3,7.955999E-1,-5.6668556E-1,1.2003039E0,1.6600901E-1,6.8507664E-2,-5.967876E-1,1.3544471E0,6.186417E-1,1.2741182E0,-3.98034E-1,9.683479E-1,-6.0952955E-1,1.3595548E0,-3.049696E-2,1.2374078E0,-1.17587455E-1,1.3775138E0,-1.7979275E-2,-5.610989E-1,7.1471584E-1,1.6348264E-1,1.2920135E0,-1.3971988E-3,-6.0980576E-1,-2.6930764E-2,1.3626306E0,1.2789054E0,-3.310239E-2,-6.454234E-2,1.4322178E-1,6.9109045E-2,1.9895907E-2,-3.287807E-1,1.1815796E0,-5.852979E-1,1.2650928E0,1.1791139E0,1.8370175E-1,2.0426617E-3,2.327501E-2,6.877576E-2,1.4843627E-2,-3.5962373E-1,-3.0505616E-2,1.3766481E0,1.0983126E0,-3.347246E-1,1.3257257E0,-2.1531897E-2,1.2460808E0,-5.91889E-1,6.7412354E-2,2.470684E-2,7.131391E-2,-5.970962E-1,6.887124E-2,7.152536E-2,2.55142E-2,3.3898258E-1,1.2714971E0,8.6877674E-1,-2.8619587E-1,-3.0673891E-2,7.4763433E-3,8.8387835E-1,6.902354E-2,1.2772202E0,1.783701E-1,2.5108103E-2,-5.6233317E-2,1.3640536E0,-3.3360038E-2,9.052774E-1,-1.765031E-1,7.1489535E-2,6.5899403E-3,2.9214893E-3,-3.3361215E-2,5.646739E-2,-6.0381395E-1,5.9794933E-2,-1.3606264E-2,1.2155247E-2,1.3136829E0,-1.5558627E-1,1.4520665E0,7.550193E-1,-4.8911902E-1,6.5032534E-2,-4.3749347E-2,6.514764E-2,1.8340014E-2,-3.6415342E-2,2.8067404E-2,6.871603E-2,3.247384E-2,-6.3586845E-3,5.8095843E-2,8.031266E-3,-2.9188916E-2,-3.0466428E-2,2.7236704E-2,7.233061E-2,4.049619E-2,-4.0392306E-2,3.843474E-2,3.0445619E-2,7.8671835E-2,6.834616E-2,-1.0319623E-3,-3.6450658E-2,4.5734677E-3],"categories":[],"categories_nodes":[],"categories_segments":[],"categories_sizes":[],"default_left":[0,0,0,0,0,0,0,0,0,0,0,0,0,0,0,0,0,0,0,0,0,0,0,0,0,0,0,0,0,0,0,0,0,0,0,0,0,0,0,0,0,0,0,0,0,0,0,0,0,0,0,0,0,0,0,0,0,0,0,0,0,0,0,0,0,0,0,0,0,0,0,0,0,0,0,0,0,0,0,0,0,0,0,0,0,0,0,0,0,0,0,0,0,0,0,0,0,0,0,0,0,0,0,0,0,0,0,0,0,0,0,0,0],"id":8,"left_children":[1,3,5,7,9,-1,11,13,15,17,19,21,23,25,-1,27,29,31,33,35,37,39,41,-1,43,-1,45,47,-1,-1,49,-1,-1,51,53,55,57,59,61,-1,-1,-1,-1,63,-1,65,67,69,71,73,75,77,-1,-1,-1,79,-1,-1,-1,81,83,85,87,-1,-1,89,-1,91,93,-1,-1,95,-1,97,99,-1,-1,-1,-1,-1,101,-1,-1,-1,103,105,107,109,111,-1,-1,-1,-1,-1,-1,-1,-1,-1,-1,-1,-1,-1,-1,-1,-1,-1,-1,-1,-1,-1,-1,-1,-1],"loss_changes":[4.6456865E3,1.0947859E3,3.502655E2,2.3351343E2,1.0525055E3,0E0,1.1829736E2,2.1643066E1,2.50812E2,7.6043945E1,2.0288434E2,1.2147575E1,8.601074E-1,1.285498E1,0E0,2.447641E1,7.741084E1,1.6767578E0,1.633466E1,4.3715424E1,3.4911186E1,4.85891E-1,2.2496681E0,0E0,1.3256836E-1,0E0,5.869385E0,2.2679138E1,0E0,0E0,3.77612E1,0E0,0E0,1.6165777E1,6.171274E-1,2.3021393E1,6.9908524E-1,5.30661E0,2.2197126E1,0E0,0E0,0E0,0E0,1.4306262E0,0E0,2.2285156E0,1.7566376E1,6.576841E0,2.274945E1,2.6083712E1,5.1824226E0,1.6186142E0,0E0,0E0,0E0,1.1728363E1,0E0,0E0,0E0,5.130825E0,2.4750214E0,1.7085585E1,9.005457E0,0E0,0E0,1.4375449E1,0E0,1.4869843E0,6.989646E0,0E0,0E0,9.593506E-1,0E0,7.140398E0,2.1555515E1,0E0,0E0,0E0,0E0,0E0,6.3808594E0,0E0,0E0,0E0,2.955391E0,7.256489E0,6.6568756E-1,3.485239E0,5.005228E0,0E0,0E0,0E0,0E0,0E0,0E0,0E0,0E0,0E0,0E0,0E0,0E0,0E0,0E0,0E0,0E0,0E0,0E0,0E0,0E0,0E0,0E0,0E0,0E0],"parents":[2147483647,0,0,1,1,2,2,3,3,4,4,6,6,7,7,8,8,9,9,10,10,11,11,12,12,13,13,15,15,16,16,17,17,18,18,19,19,20,20,21,21,22,22,24,24,26,26,27,27,30,30,33,33,34,34,35,35,36,36,37,37,38,38,43,43,45,45,46,46,47,47,48,48,49,49,50,50,51,51,55,55,59,59,60,60,61,61,62,62,65,65,67,67,68,68,71,71,73,73,74,74,80,80,84,84,85,85,86,86,87,87,88,88],"right_children":[2,4,6,8,10,-1,12,14,16,18,20,22,24,26,-1,28,30,32,34,36,38,40,42,-1,44,-1,46,48,-1,-1,50,-1,-1,52,54,56,58,60,62,-1,-1,-1,-1,64,-1,66,68,70,72,74,76,78,-1,-1,-1,80,-1,-1,-1,82,84,86,88,-1,-1,90,-1,92,94,-1,-1,96,-1,98,100,-1,-1,-1,-1,-1,102,-1,-1,-1,104,106,108,110,112,-1,-1,-1,-1,-1,-1,-1,-1,-1,-1,-1,-1,-1,-1,-1,-1,-1,-1,-1,-1,-1,-1,-1,-1],"split_conditions":[2.943E3,1.22649E-1,2.249E3,1.22E3,1.094E3,6.8507664E-2,2.313E3,3.468E3,4.8619E-2,-3E-2,4.665E3,8.66432E-1,2.869E3,-3.5791E2,-3.049696E-2,4.109E3,4.2225E-2,-5.68856E-1,2.84609E-1,2.83994E-1,7.079506E1,2.035675E0,6.129474E0,-1.3971988E-3,3.104E3,-2.6930764E-2,2.971E3,6.06156E-1,-3.310239E-2,-6.454234E-2,3.51638E1,6.9109045E-2,1.9895907E-2,2.29292E-1,-2.4775E-2,2.91E2,1.4E1,-2.64824E-1,1.455E3,2.0426617E-3,2.327501E-2,6.877576E-2,1.4843627E-2,3.383E3,-3.0505616E-2,2.8061144E1,2.861E3,-1.298034E0,5E3,9.28352E-1,-3.58315E-1,6.94466E-1,6.7412354E-2,2.470684E-2,7.131391E-2,3.1989E-2,6.887124E-2,7.152536E-2,2.55142E-2,1.4360983E2,1.1E1,9.94422E-1,1.6E1,-3.0673891E-2,7.4763433E-3,3.624E3,6.902354E-2,1.000385E0,3.047E3,2.5108103E-2,-5.6233317E-2,3.979E3,-3.3360038E-2,-3.247723E0,1.1051827E2,7.1489535E-2,6.5899403E-3,2.9214893E-3,-3.3361215E-2,5.646739E-2,3.12224E2,5.9794933E-2,-1.3606264E-2,1.2155247E-2,2.937E-3,1.62065E-1,-2.64824E-1,1.577E3,8.8E1,6.5032534E-2,-4.3749347E-2,6.514764E-2,1.8340014E-2,-3.6415342E-2,2.8067404E-2,6.871603E-2,3.247384E-2,-6.3586845E-3,5.8095843E-2,8.031266E-3,-2.9188916E-2,-3.0466428E-2,2.7236704E-2,7.233061E-2,4.049619E-2,-4.0392306E-2,3.843474E-2,3.0445619E-2,7.8671835E-2,6.834616E-2,-1.0319623E-3,-3.6450658E-2,4.5734677E-3],"split_indices":[24,31,32,36,12,0,12,32,31,0,12,9,12,0,0,12,21,26,0,40,9,29,46,0,12,0,32,9,0,0,41,0,0,31,34,42,44,34,24,0,0,0,0,32,0,41,24,18,16,49,10,11,0,0,0,21,0,0,0,1,42,51,44,0,0,12,0,60,32,0,0,12,0,0,9,0,0,0,0,0,19,0,0,0,20,31,34,36,42,0,0,0,0,0,0,0,0,0,0,0,0,0,0,0,0,0,0,0,0,0,0,0,0],"split_type":[0,0,0,0,0,0,0,0,0,0,0,0,0,0,0,0,0,0,0,0,0,0,0,0,0,0,0,0,0,0,0,0,0,0,0,0,0,0,0,0,0,0,0,0,0,0,0,0,0,0,0,0,0,0,0,0,0,0,0,0,0,0,0,0,0,0,0,0,0,0,0,0,0,0,0,0,0,0,0,0,0,0,0,0,0,0,0,0,0,0,0,0,0,0,0,0,0,0,0,0,0,0,0,0,0,0,0,0,0,0,0,0,0],"sum_hessian":[1.0291E4,4.297E3,5.994E3,2.615E3,1.682E3,9.1E1,5.903E3,2.066E3,5.49E2,5.67E2,1.115E3,4.7E1,5.856E3,2.061E3,5E0,2.98E2,2.51E2,5.25E2,4.2E1,9.73E2,1.42E2,1.4E1,3.3E1,3E0,5.853E3,3E0,2.058E3,2.92E2,6E0,4.5E1,2.06E2,5.22E2,3E0,3.4E1,8E0,9.61E2,1.2E1,7.5E1,6.7E1,1.1E1,3E0,3E1,3E0,9E0,5.844E3,1.95E3,1.08E2,8E0,2.84E2,1.8E2,2.6E1,3E1,4E0,3E0,5E0,9.56E2,5E0,9E0,3E0,8E0,6.7E1,2.7E1,4E1,6E0,3E0,1.7E1,1.933E3,9E1,1.8E1,4E0,4E0,2.79E2,5E0,2.5E1,1.55E2,2.2E1,4E0,3E0,2.7E1,3E0,9.53E2,3E0,5E0,3E0,6.4E1,1E1,1.7E1,6E0,3.4E1,1.4E1,3E0,8.7E1,3E0,5E0,1.3E1,2.74E2,5E0,5E0,2E1,8.5E1,7E1,9.49E2,4E0,4.9E1,1.5E1,6E0,4E0,3E0,1.4E1,3E0,3E0,2.4E1,1E1],"tree_param":{"num_deleted":"0","num_feature":"61","num_nodes":"113","size_leaf_vector":"1"}},{"base_weights":[-2.7563437E-3,7.727977E-1,-5.2981824E-1,1.1346676E0,1.9061485E-1,6.5263055E-2,-5.6565607E-1,1.2826157E0,6.005257E-1,1.2835953E0,-3.5596088E-1,9.465072E-1,-5.7781357E-1,1.2875955E0,-2.8471751E-2,1.184794E0,-1.3479285E-1,6.5394424E-2,3.5567266E-1,-5.199329E-1,8.306896E-1,1.3846996E-1,1.2398219E0,-5.781321E-1,-7.5090663E-3,1.2995464E0,9.0533555E-1,1.2365927E0,-3.3693556E-2,-6.076577E-2,1.0490323E-1,-3.046436E-2,6.443367E-2,4.8578802E-1,-5.4489076E-1,1.5907195E-1,1.151941E0,1.6889643E-3,1.833759E-2,6.586064E-2,1.42869875E-2,-2.9985824E-1,-5.78629E-1,1.3017141E0,-2.2582938E-3,-5.7670397E-1,6.481895E-2,-3.035197E-1,1.2798729E0,-6.0811512E-2,1.2392232E0,-2.7496267E-2,8.895648E-1,-5.5593765E-1,5.977456E-2,1.2742109E0,-2.1443109E-1,1.2205849E0,-2.7628293E-2,3.7197553E-2,-3.4869805E-2,-4.6446E-1,-2.8974324E-2,7.3157704E-1,6.5332584E-2,2.8413622E-2,-4.7486115E-2,2.410378E-2,-5.2420553E-2,1.3129148E0,7.655377E-2,2.4309497E-1,-4.6389785E-1,6.831096E-2,8.709544E-3,1.3425317E0,-7.398151E-3,-5.7349455E-1,4.4916192E-1,7.515787E-2,2.3638256E-2,-7.39107E-1,6.419247E-1,1.3159844E0,-2.5223866E-3,4.5888145E-2,-2.8717075E-2,6.1940946E-2,-4.5823194E-2,3.2060314E-2,6.5990716E-2,-5.4724276E-2,6.261412E-2,3.4473363E-2,-3.959506E-3,-6.190754E-3,-3.5038043E-2,3.0553048E-2,7.536742E-2,-2.8814783E-2,8.301631E-3,7.799476E-2,-2.8847614E-2,-0E0,-4.288218E-2,5.113694E-2,5.259158E-4,1.0499853E-2,6.780453E-2,-2.8440341E-2,2.6969632E-2],"categories":[],"categories_nodes":[],"categories_segments":[],"categories_sizes":[],"default_left":[0,0,0,0,0,0,0,0,0,0,0,0,0,0,0,0,0,0,0,0,0,0,0,0,0,0,0,0,0,0,0,0,0,0,0,0,0,0,0,0,0,0,0,0,0,0,0,0,0,0,0,0,0,0,0,0,0,0,0,0,0,0,0,0,0,0,0,0,0,0,0,0,0,0,0,0,0,0,0,0,0,0,0,0,0,0,0,0,0,0,0,0,0,0,0,0,0,0,0,0,0,0,0,0,0,0,0,0,0,0,0],"id":9,"left_children":[1,3,5,7,9,-1,11,13,15,17,19,21,23,25,-1,27,29,-1,31,33,35,37,39,41,-1,43,45,47,-1,-1,49,-1,-1,51,53,55,57,-1,-1,-1,-1,59,61,63,-1,65,-1,67,69,71,73,-1,75,77,-1,79,81,83,-1,-1,-1,85,-1,87,-1,-1,-1,-1,-1,89,91,93,95,-1,-1,97,-1,99,101,-1,-1,103,105,107,109,-1,-1,-1,-1,-1,-1,-1,-1,-1,-1,-1,-1,-1,-1,-1,-1,-1,-1,-1,-1,-1,-1,-1,-1,-1,-1],"loss_changes":[4.1845034E3,8.7226514E2,4.0150378E2,2.0087183E2,9.4981287E2,0E0,1.1042871E2,1.9241455E1,2.3913521E2,1.1315796E1,2.06653E2,1.10669365E1,6.483154E-1,7.712158E0,0E0,3.073526E1,6.421079E1,0E0,1.4357736E1,2.3664383E1,2.7518448E1,2.8214398E-1,2.0476227E0,5.583496E-1,0E0,5.8129883E0,3.791028E1,2.0616394E1,0E0,0E0,3.8351833E1,0E0,0E0,1.0141689E1,1.80961E1,1.8289043E1,1.0920593E1,0E0,0E0,0E0,0E0,5.9085712E0,2.055664E-1,4.2680664E0,0E0,6.557206E0,0E0,5.8286953E0,1.1449982E1,2.193995E1,3.1245995E0,0E0,8.30752E0,1.6240051E1,0E0,1.1101379E0,1.5311375E1,9.936127E0,0E0,0E0,0E0,8.086803E0,0E0,1.705072E1,0E0,0E0,0E0,0E0,0E0,2.8305054E-1,1.3777805E1,1.4789259E1,6.0333595E0,0E0,0E0,3.1377983E-1,0E0,1.9803467E0,1.9234104E1,0E0,0E0,1.7680836E0,3.011747E0,3.0184479E0,2.4578977E0,0E0,0E0,0E0,0E0,0E0,0E0,0E0,0E0,0E0,0E0,0E0,0E0,0E0,0E0,0E0,0E0,0E0,0E0,0E0,0E0,0E0,0E0,0E0,0E0,0E0,0E0],"parents":[2147483647,0,0,1,1,2,2,3,3,4,4,6,6,7,7,8,8,9,9,10,10,11,11,12,12,13,13,15,15,16,16,18,18,19,19,20,20,21,21,22,22,23,23,25,25,26,26,27,27,30,30,33,33,34,34,35,35,36,36,41,41,42,42,43,43,45,45,47,47,48,48,49,49,50,50,52,52,53,53,55,55,56,56,57,57,61,61,63,63,69,69,70,70,71,71,72,72,75,75,77,77,78,78,81,81,82,82,83,83,84,84],"right_children":[2,4,6,8,10,-1,12,14,16,18,20,22,24,26,-1,28,30,-1,32,34,36,38,40,42,-1,44,46,48,-1,-1,50,-1,-1,52,54,56,58,-1,-1,-1,-1,60,62,64,-1,66,-1,68,70,72,74,-1,76,78,-1,80,82,84,-1,-1,-1,86,-1,88,-1,-1,-1,-1,-1,90,92,94,96,-1,-1,98,-1,100,102,-1,-1,104,106,108,110,-1,-1,-1,-1,-1,-1,-1,-1,-1,-1,-1,-1,-1,-1,-1,-1,-1,-1,-1,-1,-1,-1,-1,-1,-1,-1],"split_conditions":[2.907E3,1.22649E-1,2.249E3,1.148E3,8.444691E0,6.5263055E-2,2.313E3,1.86837E-1,4.8619E-2,1.292472E0,1.2104526E1,-1E0,2E0,2.861E3,-2.8471751E-2,4.109E3,9.13226E-1,6.5394424E-2,7.8E0,1.188E3,-8.963065E0,3.33024E-1,6.129474E0,3.104E3,-7.5090663E-3,5.565597E2,3.49758E1,5.15521E-1,-3.3693556E-2,-6.076577E-2,3.51638E1,-3.046436E-2,6.443367E-2,5.48585E-1,2.91E2,2.355771E0,6.71E-4,1.6889643E-3,1.833759E-2,6.586064E-2,1.42869875E-2,1.9004E-2,2.931E3,2.8061144E1,-2.2582938E-3,5.801E-3,6.481895E-2,-1.298034E0,5E3,9.8964E-1,1.3053413E1,-2.7496267E-2,9.96669E-1,9.78149E-1,5.977456E-2,1.01065E-1,4.869E3,7.169972E1,-2.7628293E-2,3.7197553E-2,-3.4869805E-2,1.620401E0,-2.8974324E-2,1.171E3,6.5332584E-2,2.8413622E-2,-4.7486115E-2,2.410378E-2,-5.2420553E-2,-4.89618E-1,3.96E2,1.487E3,6E-4,6.831096E-2,8.709544E-3,1.1202E-2,-7.398151E-3,3.947004E2,1.0585785E2,7.515787E-2,2.3638256E-2,2.445141E0,1.6875241E2,1.778858E0,4.883E3,4.5888145E-2,-2.8717075E-2,6.1940946E-2,-4.5823194E-2,3.2060314E-2,6.5990716E-2,-5.4724276E-2,6.261412E-2,3.4473363E-2,-3.959506E-3,-6.190754E-3,-3.5038043E-2,3.0553048E-2,7.536742E-2,-2.8814783E-2,8.301631E-3,7.799476E-2,-2.8847614E-2,-0E0,-4.288218E-2,5.113694E-2,5.259158E-4,1.0499853E-2,6.780453E-2,-2.8440341E-2,2.6969632E-2],"split_indices":[24,31,32,36,43,0,12,23,31,11,43,45,14,24,0,12,4,0,1,24,3,11,46,12,0,22,41,9,0,0,41,0,0,52,42,7,28,0,0,0,0,23,24,41,0,23,0,18,16,52,8,0,4,58,0,34,12,2,0,0,0,1,0,12,0,0,0,0,0,57,24,24,23,0,0,23,0,22,4,0,0,7,19,7,12,0,0,0,0,0,0,0,0,0,0,0,0,0,0,0,0,0,0,0,0,0,0,0,0,0,0],"split_type":[0,0,0,0,0,0,0,0,0,0,0,0,0,0,0,0,0,0,0,0,0,0,0,0,0,0,0,0,0,0,0,0,0,0,0,0,0,0,0,0,0,0,0,0,0,0,0,0,0,0,0,0,0,0,0,0,0,0,0,0,0,0,0,0,0,0,0,0,0,0,0,0,0,0,0,0,0,0,0,0,0,0,0,0,0,0,0,0,0,0,0,0,0,0,0,0,0,0,0,0,0,0,0,0,0,0,0,0,0,0,0],"sum_hessian":[1.0235E4,4.141E3,6.094E3,2.553E3,1.588E3,1.16E2,5.978E3,1.998E3,5.55E2,5.29E2,1.059E3,4.7E1,5.931E3,1.993E3,5E0,3.09E2,2.46E2,5.15E2,1.4E1,9.31E2,1.28E2,1.3E1,3.4E1,5.926E3,5E0,1.93E3,6.3E1,3.01E2,8E0,4.4E1,2.02E2,7E0,7E0,2.2E1,9.09E2,4.2E1,8.6E1,1E1,3E0,3.1E1,3E0,1.2E1,5.914E3,1.927E3,3E0,1.3E1,5E1,8E0,2.93E2,1.77E2,2.5E1,6E0,1.6E1,9.04E2,5E0,1E1,3.2E1,8.3E1,3E0,3E0,9E0,4.9E1,5.865E3,1.8E1,1.909E3,3E0,1E1,4E0,4E0,2.85E2,8E0,1.01E2,7.6E1,2.2E1,3E0,1.1E1,5E0,8.89E2,1.5E1,7E0,3E0,2E1,1.2E1,7.7E1,6E0,3E0,4.6E1,1.4E1,4E0,4E0,2.81E2,4E0,4E0,4.2E1,5.9E1,3.2E1,4.4E1,3E0,8E0,8.86E2,3E0,7E0,8E0,3E0,1.7E1,7E0,5E0,3E0,7.4E1,3E0,3E0],"tree_param":{"num_deleted":"0","num_feature":"61","num_nodes":"111","size_leaf_vector":"1"}},{"base_weights":[3.0912445E-3,7.412031E-1,-5.005099E-1,1.0655938E0,1.4320523E-1,6.207208E-2,-5.3524077E-1,1.1495124E0,1.01211965E-2,1.2115766E0,-4.4962192E-1,9.283196E-1,-5.485532E-1,-5.4552596E-2,1.1654027E0,1.2669375E0,-2.4675758E-1,1.2364635E0,-3.3049136E-1,-4.903697E-1,7.175231E-1,1.4201087E-1,1.2245406E0,3.579429E-3,-5.4910797E-1,1.2321011E0,8.983448E-1,6.676068E-2,1.9803155E-2,5.7598525E-1,-4.0438116E-1,6.2043976E-2,1.696538E-2,3.4667198E-3,-2.7931333E-2,-5.140887E-1,1.1744411E0,1.0162928E0,-4.8041064E-1,1.5867258E-3,2.1995315E-2,2.7056104E-2,6.3184164E-2,-5.494146E-1,-6.985386E-3,1.2399936E0,9.795691E-1,9.1838606E-2,1.1455085E0,1.0708339E0,-3.1608153E-2,6.2473316E-2,-4.504469E-1,1.2238766E-1,-5.3868437E-1,6.7446634E-2,2.0980088E-2,6.61669E-2,3.8268661E-1,1.3901321E-4,-4.3424945E-2,-3.1226048E-1,-5.4978794E-1,9.6136254E-1,6.218615E-2,1.0807596E0,-0E0,1.1958591E0,-2.3207872E-1,1.2271473E0,5.3711516E-1,-4.32473E-3,6.878536E-2,6.0545813E-2,-5.354571E-1,-5.069452E-1,6.569426E-1,-3.9386392E-1,7.053889E-2,-5.5017114E-1,1.9006003E-1,-3.26805E-2,4.6723615E-2,-2.5820235E-2,1.0006453E-2,-2.7512446E-2,-3.6347482E-1,6.077677E-2,-4.8482254E-2,5.7748634E-2,-1.0170578E-2,-3.17075E-2,3.0547122E-2,6.379082E-2,1.9607563E-2,-5.8806892E-2,2.2553138E-3,6.249655E-2,-4.7284164E-2,6.527285E-2,-2.8020963E-2,-3.643971E-2,-1.9126463E-3,-3.2729518E-2,-1.0400518E-2,6.758664E-2,-8.854155E-3,-2.8899446E-2,1.3443174E-2,-2.7639672E-2,5.8821132E-3,6.772306E-2,-2.9810702E-2,1.2898807E-2,-2.5581507E-2],"categories":[],"categories_nodes":[],"categories_segments":[],"categories_sizes":[],"default_left":[0,0,0,0,0,0,0,0,0,0,0,0,0,0,0,0,0,0,0,0,0,0,0,0,0,0,0,0,0,0,0,0,0,0,0,0,0,0,0,0,0,0,0,0,0,0,0,0,0,0,0,0,0,0,0,0,0,0,0,0,0,0,0,0,0,0,0,0,0,0,0,0,0,0,0,0,0,0,0,0,0,0,0,0,0,0,0,0,0,0,0,0,0,0,0,0,0,0,0,0,0,0,0,0,0,0,0,0,0,0,0,0,0,0,0],"id":10,"left_children":[1,3,5,7,9,-1,11,13,15,17,19,21,23,-1,25,27,29,31,33,35,37,39,41,-1,43,45,47,-1,-1,49,51,-1,-1,-1,-1,53,55,57,59,-1,-1,-1,-1,61,-1,63,65,67,69,71,73,-1,75,77,79,-1,-1,-1,81,-1,-1,83,85,87,-1,89,91,93,95,97,99,-1,-1,-1,101,103,105,107,-1,109,111,-1,-1,-1,-1,-1,113,-1,-1,-1,-1,-1,-1,-1,-1,-1,-1,-1,-1,-1,-1,-1,-1,-1,-1,-1,-1,-1,-1,-1,-1,-1,-1,-1,-1],"loss_changes":[3.7989404E3,8.0379443E2,3.6812805E2,2.3787012E2,9.246925E2,0E0,1.165354E2,8.9894775E1,6.466168E1,2.0493958E1,4.498668E1,1.2267193E1,2.118042E0,0E0,4.271216E1,1.3196793E0,2.1743244E1,1.4532471E0,9.085907E-1,3.639241E1,1.1994827E1,4.6448886E-1,1.7899323E-1,0E0,5.949707E-1,2.5E0,9.904193E1,0E0,0E0,8.255771E0,1.1148918E1,0E0,0E0,0E0,0E0,1.4134064E1,9.694023E-1,4.3811646E0,1.4016315E0,0E0,0E0,0E0,0E0,2.6391602E-1,0E0,5.695801E-1,6.543331E0,4.2572052E1,1.8088135E1,5.540491E0,8.719428E0,0E0,8.889526E0,2.3271883E1,7.36467E0,0E0,0E0,0E0,6.3570027E0,0E0,0E0,1.3901914E0,2.1386719E-1,1.5927519E1,0E0,5.952919E0,3.1015873E0,1.0679741E0,2.4240623E1,1.7796692E1,4.0440346E1,0E0,0E0,0E0,8.5669684E-1,5.559433E0,4.413144E0,3.2369301E0,0E0,1.5970764E0,1.37009115E1,0E0,0E0,0E0,0E0,0E0,1.814636E0,0E0,0E0,0E0,0E0,0E0,0E0,0E0,0E0,0E0,0E0,0E0,0E0,0E0,0E0,0E0,0E0,0E0,0E0,0E0,0E0,0E0,0E0,0E0,0E0,0E0,0E0,0E0,0E0],"parents":[2147483647,0,0,1,1,2,2,3,3,4,4,6,6,7,7,8,8,9,9,10,10,11,11,12,12,14,14,15,15,16,16,17,17,18,18,19,19,20,20,21,21,22,22,24,24,25,25,26,26,29,29,30,30,35,35,36,36,37,37,38,38,43,43,45,45,46,46,47,47,48,48,49,49,50,50,52,52,53,53,54,54,58,58,61,61,62,62,63,63,65,65,66,66,67,67,68,68,69,69,70,70,74,74,75,75,76,76,77,77,79,79,80,80,86,86],"right_children":[2,4,6,8,10,-1,12,14,16,18,20,22,24,-1,26,28,30,32,34,36,38,40,42,-1,44,46,48,-1,-1,50,52,-1,-1,-1,-1,54,56,58,60,-1,-1,-1,-1,62,-1,64,66,68,70,72,74,-1,76,78,80,-1,-1,-1,82,-1,-1,84,86,88,-1,90,92,94,96,98,100,-1,-1,-1,102,104,106,108,-1,110,112,-1,-1,-1,-1,-1,114,-1,-1,-1,-1,-1,-1,-1,-1,-1,-1,-1,-1,-1,-1,-1,-1,-1,-1,-1,-1,-1,-1,-1,-1,-1,-1,-1,-1],"split_conditions":[2.907E3,1.62065E-1,4.498E-1,5.7079067E3,8.444691E0,6.207208E-2,4.626E-1,1E0,9.30662E-1,9.0816E-1,9.594E-1,8.66432E-1,5.738E-1,-5.4552596E-2,8.64E2,2.6E1,1.4E1,-7.81861E-1,1.5E1,2.83994E-1,1.721E3,9.95888E-1,1.532666E0,3.579429E-3,1.024E3,6.002E-1,5.86706E-1,6.676068E-2,1.9803155E-2,-3.5425E-2,-1.686829E0,6.2043976E-2,1.696538E-2,3.4667198E-3,-2.7931333E-2,2.342E-1,1.237E3,5.416967E0,9.778E-1,1.5867258E-3,2.1995315E-2,2.7056104E-2,6.3184164E-2,1.24E2,-6.985386E-3,2.83076E1,2.869E3,4E0,8.574E-1,-1.37615E-1,1.61E3,6.2473316E-2,6.62925E-1,2.29292E-1,9.80826E-1,6.7446634E-2,2.0980088E-2,6.61669E-2,-2.64824E-1,1.3901321E-4,-4.3424945E-2,1.13E2,1.000095E0,8.574E-1,6.218615E-2,8.517E-3,3.4759E1,1.77E-4,9.13226E-1,4.997E3,3.686E-1,-4.32473E-3,6.878536E-2,6.0545813E-2,4.835393E1,5.439845E0,2.06E-4,4.44361E-1,7.053889E-2,6.2316534E2,1.8887473E2,-3.26805E-2,4.6723615E-2,-2.5820235E-2,1.0006453E-2,-2.7512446E-2,1.7393E0,6.077677E-2,-4.8482254E-2,5.7748634E-2,-1.0170578E-2,-3.17075E-2,3.0547122E-2,6.379082E-2,1.9607563E-2,-5.8806892E-2,2.2553138E-3,6.249655E-2,-4.7284164E-2,6.527285E-2,-2.8020963E-2,-3.643971E-2,-1.9126463E-3,-3.2729518E-2,-1.0400518E-2,6.758664E-2,-8.854155E-3,-2.8899446E-2,1.3443174E-2,-2.7639672E-2,5.8821132E-3,6.772306E-2,-2.9810702E-2,1.2898807E-2,-2.5581507E-2],"split_indices":[24,31,33,5,43,0,13,44,49,2,13,9,13,0,36,59,16,26,16,40,24,4,1,0,44,33,11,0,0,6,6,0,0,0,0,13,24,21,13,0,0,0,0,36,0,41,24,37,13,34,24,0,60,31,57,0,0,0,34,0,0,36,60,13,0,21,41,28,4,16,33,0,0,0,2,46,28,54,0,30,1,0,0,0,0,0,1,0,0,0,0,0,0,0,0,0,0,0,0,0,0,0,0,0,0,0,0,0,0,0,0,0,0,0,0],"split_type":[0,0,0,0,0,0,0,0,0,0,0,0,0,0,0,0,0,0,0,0,0,0,0,0,0,0,0,0,0,0,0,0,0,0,0,0,0,0,0,0,0,0,0,0,0,0,0,0,0,0,0,0,0,0,0,0,0,0,0,0,0,0,0,0,0,0,0,0,0,0,0,0,0,0,0,0,0,0,0,0,0,0,0,0,0,0,0,0,0,0,0,0,0,0,0,0,0,0,0,0,0,0,0,0,0,0,0,0,0,0,0,0,0,0,0],"sum_hessian":[1.0218E4,4.144E3,6.074E3,2.686E3,1.458E3,1.18E2,5.956E3,2.488E3,1.98E2,5.2E2,9.38E2,5.3E1,5.903E3,1.7E1,2.471E3,3.3E1,1.65E2,5.12E2,8E0,9.07E2,3.1E1,1.5E1,3.8E1,5E0,5.898E3,1.974E3,4.97E2,3E1,3E0,2.6E1,1.39E2,5.09E2,3E0,3E0,5E0,8.95E2,1.2E1,2.5E1,6E0,1.2E1,3E0,3E0,3.5E1,5.893E3,5E0,1.91E3,6.4E1,1.17E2,3.8E2,1.4E1,1.2E1,3E0,1.36E2,3.3E1,8.62E2,9E0,3E0,1.6E1,9E0,3E0,3E0,1.1E1,5.882E3,2.9E1,1.881E3,5.8E1,6E0,2.6E1,9.1E1,3.34E2,4.6E1,3E0,1.1E1,3E0,9E0,1.3E2,6E0,2.4E1,9E0,8.49E2,1.3E1,3E0,6E0,8E0,3E0,5.865E3,1.7E1,2.6E1,3E0,5.5E1,3E0,3E0,3E0,2.3E1,3E0,2E1,7.1E1,3.31E2,3E0,2.7E1,1.9E1,6E0,3E0,8.6E1,4.4E1,3E0,3E0,1.9E1,5E0,8.46E2,3E0,5E0,8E0,3E0,1.4E1],"tree_param":{"num_deleted":"0","num_feature":"61","num_nodes":"115","size_leaf_vector":"1"}},{"base_weights":[1.288833E-3,6.9776833E-1,-4.7841755E-1,9.9855125E-1,1.407429E-1,5.8990426E-2,-5.1136714E-1,1.0743499E0,6.692385E-3,1.1536471E0,-4.1511E-1,8.382615E-1,-5.211586E-1,1.1365908E0,4.6341267E-1,5.8183517E-2,-2.5633228E-1,1.1804773E0,-1.8120514E-1,-4.701802E-1,6.932967E-1,1.1087812E0,1.2100199E-1,3.4302883E-3,-5.2168876E-1,1.1407835E0,-4.887841E-2,-1.0107868E0,8.300295E-1,2.76144E-1,-5.286884E-1,1.6735157E-2,5.9232045E-2,-2.9240463E-2,3.231522E-2,-4.8727372E-1,8.2701206E-1,1.0475107E0,-2.5150034E-1,5.95099E-2,1.1833416E-2,1.3073512E-3,1.5144445E-2,-5.219782E-1,-6.7340694E-3,1.1433854E0,-2.9830754E-2,1.849913E-2,-5.578058E-2,1.1699408E0,-1.0404483E-1,6.497716E-2,1.1745451E-2,-1.528462E-1,-6.141471E-1,1.4379273E-1,-5.235816E-1,6.424976E-2,-1.9260146E-2,3.7622E-1,6.397011E-2,3.101745E-1,-3.9576612E-2,-2.5715593E-1,-5.222784E-1,1.1548984E0,7.634557E-1,6.005737E-2,1.3326893E-2,5.1341344E-2,-2.7986833E-1,4.944304E-1,-6.441258E-1,-3.2526292E-2,9.2115957E-1,-6.5724474E-1,9.343158E-3,-3.837829E-1,6.291013E-1,-5.2820945E-1,8.896087E-2,5.9812825E-2,-1.7659022E-2,-3.0330269E-2,5.8720537E-2,9.532181E-3,-2.6474813E-2,-4.1948363E-1,-2.6153633E-2,5.853351E-2,4.4897128E-2,-1.9111862E-2,5.7002045E-2,-2.9084215E-2,-5.5741076E-4,5.3696334E-2,-1.9216528E-2,-0E0,-3.8516928E-2,7.537755E-2,3.9739106E-3,-3.4075335E-2,-0E0,-2.9540343E-2,3.8701937E-2,7.1167514E-2,1.2815346E-2,-1.3034123E-2,-2.6583597E-2,3.0034533E-2,-2.1000456E-2,4.4224925E-2,-2.6074646E-2],"categories":[],"categories_nodes":[],"categories_segments":[],"categories_sizes":[],"default_left":[0,0,0,0,0,0,0,0,0,0,0,0,0,0,0,0,0,0,0,0,0,0,0,0,0,0,0,0,0,0,0,0,0,0,0,0,0,0,0,0,0,0,0,0,0,0,0,0,0,0,0,0,0,0,0,0,0,0,0,0,0,0,0,0,0,0,0,0,0,0,0,0,0,0,0,0,0,0,0,0,0,0,0,0,0,0,0,0,0,0,0,0,0,0,0,0,0,0,0,0,0,0,0,0,0,0,0,0,0,0,0,0,0],"id":11,"left_children":[1,3,5,7,9,-1,11,13,15,17,19,21,23,25,27,-1,29,31,33,35,37,39,41,-1,43,45,-1,47,49,51,53,-1,-1,-1,-1,55,57,59,61,-1,-1,-1,-1,63,-1,65,-1,-1,-1,67,69,-1,71,73,75,77,79,-1,-1,81,-1,83,-1,85,87,89,91,-1,-1,-1,93,95,97,-1,99,101,-1,103,105,107,109,-1,-1,-1,-1,-1,-1,111,-1,-1,-1,-1,-1,-1,-1,-1,-1,-1,-1,-1,-1,-1,-1,-1,-1,-1,-1,-1,-1,-1,-1,-1,-1],"loss_changes":[3.410238E3,6.972302E2,3.307677E2,2.031001E2,8.231333E2,0E0,7.872937E1,9.479492E1,5.9121574E1,1.8865723E1,5.79256E1,8.086271E0,1.9212646E0,2.132373E1,1.2729003E2,0E0,2.3084906E1,1.2404785E0,4.045664E0,2.032521E1,1.5402769E1,1.7767715E0,1.8346418E-1,0E0,5.2282715E-1,1.1016357E1,0E0,7.2900467E0,5.9918777E1,1.4465212E1,3.2019253E0,0E0,0E0,0E0,0E0,2.0482681E1,7.2470493E0,4.490101E0,4.2368393E0,0E0,0E0,0E0,0E0,2.5476074E-1,0E0,8.860107E0,0E0,0E0,0E0,3.423584E0,1.0353206E1,0E0,1.4232989E1,1.1796901E1,3.1041946E0,1.2811782E1,2.4749146E0,0E0,0E0,6.4881525E0,0E0,6.3153853E0,0E0,1.2324154E0,1.652832E-1,7.6657715E0,3.0713127E1,0E0,0E0,0E0,3.5839128E0,1.3721908E1,1.6116815E0,0E0,3.1763635E0,1.237587E0,0E0,6.1917086E0,7.165599E0,5.556488E-1,2.0935493E0,0E0,0E0,0E0,0E0,0E0,0E0,7.208892E0,0E0,0E0,0E0,0E0,0E0,0E0,0E0,0E0,0E0,0E0,0E0,0E0,0E0,0E0,0E0,0E0,0E0,0E0,0E0,0E0,0E0,0E0,0E0,0E0,0E0],"parents":[2147483647,0,0,1,1,2,2,3,3,4,4,6,6,7,7,8,8,9,9,10,10,11,11,12,12,13,13,14,14,16,16,17,17,18,18,19,19,20,20,21,21,22,22,24,24,25,25,27,27,28,28,29,29,30,30,35,35,36,36,37,37,38,38,43,43,45,45,49,49,50,50,52,52,53,53,54,54,55,55,56,56,59,59,61,61,63,63,64,64,65,65,66,66,70,70,71,71,72,72,74,74,75,75,77,77,78,78,79,79,80,80,87,87],"right_children":[2,4,6,8,10,-1,12,14,16,18,20,22,24,26,28,-1,30,32,34,36,38,40,42,-1,44,46,-1,48,50,52,54,-1,-1,-1,-1,56,58,60,62,-1,-1,-1,-1,64,-1,66,-1,-1,-1,68,70,-1,72,74,76,78,80,-1,-1,82,-1,84,-1,86,88,90,92,-1,-1,-1,94,96,98,-1,100,102,-1,104,106,108,110,-1,-1,-1,-1,-1,-1,112,-1,-1,-1,-1,-1,-1,-1,-1,-1,-1,-1,-1,-1,-1,-1,-1,-1,-1,-1,-1,-1,-1,-1,-1,-1],"split_conditions":[2.907E3,1.62065E-1,2.249E3,5.7079067E3,8.444691E0,5.8990426E-2,2.313E3,1.10022E-1,8.60895E-1,-3E-2,4.746E3,-5.31452E-1,2.869E3,4.995E3,2E0,5.8183517E-2,2.3E1,6.2953E-2,6.264872E0,1.73E2,1.61E3,6.094827E0,2.95223E-1,3.4302883E-3,2E0,1.66E2,-4.887841E-2,1.33E2,9.001487E0,4E1,-3.5791E2,1.6735157E-2,5.9232045E-2,-2.9240463E-2,3.231522E-2,1.655E3,-6.85022E-1,-2.64824E-1,4.884E3,5.95099E-2,1.1833416E-2,1.3073512E-3,1.5144445E-2,3.104E3,-6.7340694E-3,2.861E3,-2.9830754E-2,1.849913E-2,-5.578058E-2,1.616E3,2.077E3,6.497716E-2,1.64E3,7.9E-5,6.62925E-1,2.2489E-1,9.83159E-1,6.424976E-2,-1.9260146E-2,2.0778471E2,6.397011E-2,1.64E3,-3.9576612E-2,4.92006E0,2.931E3,1.4885925E1,3.49758E1,6.005737E-2,1.3326893E-2,5.1341344E-2,-6.4909E-2,2E-4,4.663982E0,-3.2526292E-2,4.806E3,2.75655E-1,9.343158E-3,5.570401E0,4.2557E-1,8.54794E-1,2.051E-2,5.9812825E-2,-1.7659022E-2,-3.0330269E-2,5.8720537E-2,9.532181E-3,-2.6474813E-2,1.620401E0,-2.6153633E-2,5.853351E-2,4.4897128E-2,-1.9111862E-2,5.7002045E-2,-2.9084215E-2,-5.5741076E-4,5.3696334E-2,-1.9216528E-2,-0E0,-3.8516928E-2,7.537755E-2,3.9739106E-3,-3.4075335E-2,-0E0,-2.9540343E-2,3.8701937E-2,7.1167514E-2,1.2815346E-2,-1.3034123E-2,-2.6583597E-2,3.0034533E-2,-2.1000456E-2,4.4224925E-2,-2.6074646E-2],"split_indices":[24,31,32,5,43,0,12,23,50,0,12,10,12,16,42,0,16,29,7,42,24,46,50,0,14,14,0,24,43,42,0,0,0,0,0,32,0,34,12,0,0,0,0,12,0,24,0,0,0,12,24,0,24,28,60,31,57,0,0,1,0,24,0,1,24,4,41,0,0,0,3,23,46,0,12,23,0,46,31,49,2,0,0,0,0,0,0,1,0,0,0,0,0,0,0,0,0,0,0,0,0,0,0,0,0,0,0,0,0,0,0,0,0],"split_type":[0,0,0,0,0,0,0,0,0,0,0,0,0,0,0,0,0,0,0,0,0,0,0,0,0,0,0,0,0,0,0,0,0,0,0,0,0,0,0,0,0,0,0,0,0,0,0,0,0,0,0,0,0,0,0,0,0,0,0,0,0,0,0,0,0,0,0,0,0,0,0,0,0,0,0,0,0,0,0,0,0,0,0,0,0,0,0,0,0,0,0,0,0,0,0,0,0,0,0,0,0,0,0,0,0,0,0,0,0,0,0,0,0],"sum_hessian":[1.0205E4,4.162E3,6.043E3,2.702E3,1.46E3,1.17E2,5.926E3,2.51E3,1.92E2,5.17E2,9.43E2,4.2E1,5.884E3,2.277E3,2.33E2,3.5E1,1.57E2,5.07E2,1E1,8.99E2,4.4E1,3E1,1.2E1,5E0,5.879E3,2.273E3,4E0,4.6E1,1.87E2,5.3E1,1.04E2,3E0,5.04E2,7E0,3E0,8.88E2,1.1E1,3.2E1,1.2E1,2.7E1,3E0,9E0,3E0,5.874E3,5E0,2.27E3,3E0,3E0,4.3E1,1.37E2,5E1,1E1,4.3E1,2E1,8.4E1,4.8E1,8.4E2,8E0,3E0,9E0,2.3E1,6E0,6E0,8E0,5.866E3,2.201E3,6.9E1,1.32E2,5E0,6E0,4.4E1,2.5E1,1.8E1,1.4E1,6E0,8E1,4E0,2.3E1,2.5E1,8.34E2,6E0,4E0,5E0,3E0,3E0,3E0,5E0,5E1,5.816E3,2.07E3,1.31E2,1.7E1,5.2E1,2E1,2.4E1,1.5E1,1E1,3E0,1.5E1,3E0,3E0,7.7E1,3E0,2E1,3E0,7E0,1.8E1,1.2E1,8.22E2,3E0,3E0,3E0,4.7E1],"tree_param":{"num_deleted":"0","num_feature":"61","num_nodes":"113","size_leaf_vector":"1"}},{"base_weights":[3.2308756E-3,6.668329E-1,-4.5359337E-1,9.624877E-1,1.23646215E-1,5.6034695E-2,-4.8494592E-1,1.0338103E0,5.1541246E-2,1.0573251E0,-4.0764415E-1,7.7445686E-1,-4.9595624E-1,-4.9662087E-2,1.0496849E0,1.0789036E0,-1.9064078E-1,1.1254478E0,-2.6489353E-1,-4.576582E-1,6.2122595E-1,1.4131659E-3,1.0735012E0,-4.96359E-1,-1.2412998E-1,1.0892345E0,6.26894E-1,6.1574586E-2,6.373382E-1,2.1431099E-1,-4.4080448E-1,1.6576957E-2,5.6464713E-2,-2.7180118E-2,2.5327167E-1,-4.7052386E-1,7.231514E-1,8.433198E-1,-4.7111127E-1,5.7712745E-2,6.82906E-1,-3.292745E-1,-2.4835577E-2,1.3777231E-2,-2.1952184E-2,1.0932544E0,-4.692327E-2,9.502014E-1,-2.6849875E-1,-2.512281E-2,5.421046E-2,8.0409443E-1,-1.2767226E-1,-5.1645523E-1,6.237632E-1,-2.8256191E-2,6.0234595E-2,-4.8018172E-1,4.0102925E-2,-7.7622607E-3,5.6803536E-2,1.1201899E-1,1.1063193E0,-4.1548412E-2,3.574385E-3,4.708719E-2,4.9461443E-3,3.6614615E-2,-3.1913698E-2,1.0958186E0,-3.0610269E-2,5.715698E-2,-3.1686928E-2,2.5051638E-1,-5.3677212E-2,-1.9645192E-2,1.3421874E0,8.9429444E-1,-4.1423565E-1,-1.427755E-1,-6.6341907E-1,6.470177E-2,-8.872493E-3,-4.8671E-1,5.263589E-2,-4.2967796E-1,5.9620406E-2,6.2353697E-2,1.0879243E-2,1.3598098E-2,5.505634E-2,4.7091555E-2,-9.839316E-3,6.114797E-2,-3.3715076E-3,-3.7509646E-2,6.1936237E-2,7.59295E-2,2.4826676E-2,5.4969992E-2,1.6903143E-2,2.6664853E-2,-3.7823364E-2,-2.8266117E-2,2.7627675E-2,-5.975578E-2,-3.091298E-2,4.8226006E-3,-2.4681544E-2,-3.5590824E-2,2.7073352E-4],"categories":[],"categories_nodes":[],"categories_segments":[],"categories_sizes":[],"default_left":[0,0,0,0,0,0,0,0,0,0,0,0,0,0,0,0,0,0,0,0,0,0,0,0,0,0,0,0,0,0,0,0,0,0,0,0,0,0,0,0,0,0,0,0,0,0,0,0,0,0,0,0,0,0,0,0,0,0,0,0,0,0,0,0,0,0,0,0,0,0,0,0,0,0,0,0,0,0,0,0,0,0,0,0,0,0,0,0,0,0,0,0,0,0,0,0,0,0,0,0,0,0,0,0,0,0,0,0,0,0,0],"id":12,"left_children":[1,3,5,7,9,-1,11,13,15,17,19,21,23,-1,25,27,29,31,33,35,37,-1,39,41,43,45,47,-1,49,51,53,-1,-1,-1,55,57,59,61,63,-1,65,67,-1,-1,-1,69,-1,71,73,-1,-1,75,77,79,81,-1,-1,83,-1,-1,-1,85,87,-1,-1,-1,-1,-1,-1,89,-1,-1,91,93,-1,95,97,99,101,103,105,-1,-1,107,-1,109,-1,-1,-1,-1,-1,-1,-1,-1,-1,-1,-1,-1,-1,-1,-1,-1,-1,-1,-1,-1,-1,-1,-1,-1,-1],"loss_changes":[3.113063E3,6.721869E2,3.006748E2,1.7597461E2,7.331686E2,0E0,8.3055664E1,8.194531E1,4.9558628E1,4.866333E1,4.874138E1,1.14630165E1,7.6171875E-1,0E0,4.086499E1,1.5885887E0,1.64271E1,1.0369873E0,4.0659766E0,1.3972504E1,1.1108978E1,0E0,1.9509506E-1,1.0180664E-1,1.1442301E0,1.9625977E1,6.285251E1,0E0,6.715036E0,1.2675458E1,8.364948E0,0E0,0E0,0E0,8.531137E0,1.1291412E1,3.9015212E0,6.870514E0,1.6974161E0,0E0,1.1631856E0,5.706378E0,0E0,0E0,0E0,1.0673096E1,0E0,3.0268951E1,2.4585426E1,0E0,0E0,1.0353335E1,1.2036772E1,4.9868965E0,4.100501E0,0E0,0E0,9.302155E0,0E0,0E0,0E0,7.0263023E0,2.9597092E0,0E0,0E0,0E0,0E0,0E0,0E0,9.503174E0,0E0,0E0,4.45047E0,1.1328672E1,0E0,1.0073422E1,1.1329155E0,5.1136255E-1,1.0802559E1,8.540302E0,6.885166E-1,0E0,0E0,3.6430206E0,0E0,1.0565456E0,0E0,0E0,0E0,0E0,0E0,0E0,0E0,0E0,0E0,0E0,0E0,0E0,0E0,0E0,0E0,0E0,0E0,0E0,0E0,0E0,0E0,0E0,0E0,0E0,0E0],"parents":[2147483647,0,0,1,1,2,2,3,3,4,4,6,6,7,7,8,8,9,9,10,10,11,11,12,12,14,14,15,15,16,16,17,17,18,18,19,19,20,20,22,22,23,23,24,24,25,25,26,26,28,28,29,29,30,30,34,34,35,35,36,36,37,37,38,38,40,40,41,41,45,45,47,47,48,48,51,51,52,52,53,53,54,54,57,57,61,61,62,62,69,69,72,72,73,73,75,75,76,76,77,77,78,78,79,79,80,80,83,83,85,85],"right_children":[2,4,6,8,10,-1,12,14,16,18,20,22,24,-1,26,28,30,32,34,36,38,-1,40,42,44,46,48,-1,50,52,54,-1,-1,-1,56,58,60,62,64,-1,66,68,-1,-1,-1,70,-1,72,74,-1,-1,76,78,80,82,-1,-1,84,-1,-1,-1,86,88,-1,-1,-1,-1,-1,-1,90,-1,-1,92,94,-1,96,98,100,102,104,106,-1,-1,108,-1,110,-1,-1,-1,-1,-1,-1,-1,-1,-1,-1,-1,-1,-1,-1,-1,-1,-1,-1,-1,-1,-1,-1,-1,-1,-1],"split_conditions":[2.907E3,1.62065E-1,2.249E3,5.7079067E3,1E3,5.6034695E-2,2.313E3,1E0,9.30662E-1,-3E-2,4.746E3,3.55659E-1,1.1E1,-4.9662087E-2,1.10022E-1,9E0,2.3E1,6.4176E-2,-1.047704E0,2.83994E-1,1.721E3,1.4131659E-3,3.54E3,3.104E3,6.4213E-2,4.995E3,8.60731E-1,6.1574586E-2,9.1236E-2,1.655E3,6.62925E-1,1.6576957E-2,5.6464713E-2,-2.7180118E-2,5.84E2,1.8E1,-1.033449E0,-2.64824E-1,6.7866E-2,5.7712745E-2,2.785871E0,1.9004E-2,-2.4835577E-2,1.3777231E-2,-2.1952184E-2,1.6E2,-4.692327E-2,1.286E3,-8.84176E-1,-2.512281E-2,5.421046E-2,-5.6E-5,4.68E3,2.202488E2,2.06E-4,-2.8256191E-2,6.0234595E-2,9.99444E-1,4.0102925E-2,-7.7622607E-3,5.6803536E-2,5.194092E0,2.103E3,-4.1548412E-2,3.574385E-3,4.708719E-2,4.9461443E-3,3.6614615E-2,-3.1913698E-2,-2.383629E1,-3.0610269E-2,5.715698E-2,-2.78223E-1,1.6646694E1,-5.3677212E-2,1.604E3,2.209473E0,1.001603E0,1.61E3,3.2565955E2,3.39E2,6.470177E-2,-8.872493E-3,-9.2301674E1,5.263589E-2,2E-4,5.9620406E-2,6.2353697E-2,1.0879243E-2,1.3598098E-2,5.505634E-2,4.7091555E-2,-9.839316E-3,6.114797E-2,-3.3715076E-3,-3.7509646E-2,6.1936237E-2,7.59295E-2,2.4826676E-2,5.4969992E-2,1.6903143E-2,2.6664853E-2,-3.7823364E-2,-2.8266117E-2,2.7627675E-2,-5.975578E-2,-3.091298E-2,4.8226006E-3,-2.4681544E-2,-3.5590824E-2,2.7073352E-4],"split_indices":[24,31,32,5,12,0,12,44,49,0,12,11,16,0,23,37,16,29,6,40,24,0,24,12,3,16,55,0,31,32,60,0,0,0,12,14,10,34,3,0,8,23,0,0,0,14,0,12,0,0,0,28,12,1,28,0,0,49,0,0,0,11,32,0,0,0,0,0,0,2,0,0,3,7,0,32,3,38,24,27,24,0,0,2,0,23,0,0,0,0,0,0,0,0,0,0,0,0,0,0,0,0,0,0,0,0,0,0,0,0,0],"split_type":[0,0,0,0,0,0,0,0,0,0,0,0,0,0,0,0,0,0,0,0,0,0,0,0,0,0,0,0,0,0,0,0,0,0,0,0,0,0,0,0,0,0,0,0,0,0,0,0,0,0,0,0,0,0,0,0,0,0,0,0,0,0,0,0,0,0,0,0,0,0,0,0,0,0,0,0,0,0,0,0,0,0,0,0,0,0,0,0,0,0,0,0,0,0,0,0,0,0,0,0,0,0,0,0,0,0,0,0,0,0,0],"sum_hessian":[1.0267E4,4.186E3,6.081E3,2.71E3,1.476E3,1.18E2,5.963E3,2.513E3,1.97E2,5.35E2,9.41E2,5.1E1,5.912E3,1.9E1,2.494E3,3.7E1,1.6E2,5.09E2,2.6E1,8.98E2,4.3E1,1.5E1,3.6E1,5.905E3,7E0,2.279E3,2.15E2,2.6E1,1.1E1,6.1E1,9.9E1,3E0,5.06E2,1.7E1,9E0,8.89E2,9E0,3.6E1,7E0,2.8E1,8E0,1.5E1,5.89E3,3E0,4E0,2.275E3,4E0,1.58E2,5.7E1,3E0,8E0,2.2E1,3.9E1,9.3E1,6E0,5E0,4E0,8.83E2,6E0,3E0,6E0,1E1,2.6E1,4E0,3E0,5E0,3E0,3E0,1.2E1,2.272E3,3E0,1.32E2,2.6E1,3.5E1,2.2E1,9E0,1.3E1,8E0,3.1E1,2.7E1,6.6E1,3E0,3E0,8.8E2,3E0,7E0,3E0,2.2E1,4E0,1.5E1,2.257E3,3E0,2.3E1,8E0,2.7E1,6E0,3E0,1E1,3E0,5E0,3E0,8E0,2.3E1,1.7E1,1E1,3E0,6.3E1,1E1,8.7E2,4E0,3E0],"tree_param":{"num_deleted":"0","num_feature":"61","num_nodes":"111","size_leaf_vector":"1"}},{"base_weights":[4.95815E-3,6.6949844E-1,-4.1490307E-1,9.171777E-1,1.887544E-1,9.195094E-1,-4.606615E-1,1.0570078E0,4.716167E-1,1.0447295E0,-3.4109485E-1,-2.3467131E-2,1.0298296E0,7.1933556E-1,-4.7096288E-1,1.0621525E0,-2.7149985E-2,9.7641486E-1,3.1030674E-2,1.0657681E0,-1.2061119E-1,5.97332E-1,-4.144577E-1,-2.6146693E-2,1.05748E0,5.399067E-2,1.9785084E-1,-4.7154906E-1,2.5292844E-2,1.0647709E0,-8.542913E-3,1.0197332E0,-3.408838E-2,-9.2420846E-1,1.7797515E-1,1.1781039E-2,5.3501334E-2,-2.661938E-2,3.0257517E-2,7.4753493E-1,-3.2694068E-2,-4.3516812E-1,8.2845956E-1,-0E0,5.371636E-2,-4.1879516E-2,4.5036674E-2,-5.7196107E-2,-4.72142E-1,6.240175E-1,5.3399075E-2,3.1694564E-1,1.051672E0,1.5322668E-2,-5.108952E-2,5.808664E-1,-1.7408903E-1,8.8250893E-1,-2.4258545E-2,-4.447653E-1,5.4627832E-2,5.7563394E-2,-8.033804E-3,-1.5398549E-2,1.2601754E-3,5.571721E-2,-3.663813E-2,-4.7248137E-1,6.5851286E-3,5.083505E-2,-4.4068944E-2,7.1733767E-1,-4.191844E-2,2.1257888E-1,1.0758235E0,1.1801138E0,1.7557152E-1,8.6173016E-1,-3.500131E-1,6.0811716E-1,6.654884E-2,-4.5410937E-1,3.9502468E-2,-4.7186998E-1,-4.5802813E-2,4.000046E-3,4.6691943E-2,4.2408433E-2,-1.1495537E-2,5.414669E-2,1.5807377E-2,6.4430125E-2,3.9911855E-2,5.861568E-2,-4.870612E-3,-2.5715396E-2,5.4942567E-2,9.433148E-3,-2.3753187E-2,-3.2233E-2,5.5446804E-2,-2.2979593E-2,9.194235E-3,-1.1818818E-2,-2.360442E-2],"categories":[],"categories_nodes":[],"categories_segments":[],"categories_sizes":[],"default_left":[0,0,0,0,0,0,0,0,0,0,0,0,0,0,0,0,0,0,0,0,0,0,0,0,0,0,0,0,0,0,0,0,0,0,0,0,0,0,0,0,0,0,0,0,0,0,0,0,0,0,0,0,0,0,0,0,0,0,0,0,0,0,0,0,0,0,0,0,0,0,0,0,0,0,0,0,0,0,0,0,0,0,0,0,0,0,0,0,0,0,0,0,0,0,0,0,0,0,0,0,0,0,0,0,0],"id":13,"left_children":[1,3,5,7,9,11,13,15,17,19,21,-1,23,25,27,29,-1,31,33,35,37,39,41,-1,43,-1,45,47,-1,49,-1,51,-1,53,55,-1,-1,-1,-1,57,-1,59,61,-1,-1,63,-1,65,67,69,-1,71,73,-1,-1,75,77,79,-1,81,-1,-1,-1,-1,-1,-1,-1,83,-1,-1,-1,85,-1,87,89,91,93,95,97,99,-1,101,-1,103,-1,-1,-1,-1,-1,-1,-1,-1,-1,-1,-1,-1,-1,-1,-1,-1,-1,-1,-1,-1,-1],"loss_changes":[2.8666216E3,4.7337817E2,3.8481543E2,1.6289331E2,6.1451685E2,3.2562073E1,7.431726E1,1.7067139E1,1.3976297E2,1.2922913E1,5.785312E1,0E0,8.93573E0,9.621723E0,3.691162E0,6.699463E0,0E0,2.1775116E1,4.739358E1,1.416748E0,3.303413E0,1.1962257E1,2.0322205E1,0E0,3.3972168E0,0E0,3.9991608E0,1.4023438E0,0E0,1.9763184E0,0E0,5.9494324E0,0E0,5.788727E0,4.1701965E1,0E0,0E0,0E0,0E0,9.61898E0,0E0,1.1637451E1,4.4349556E0,0E0,0E0,3.5734266E-1,0E0,8.692925E0,1.3306885E0,1.0959082E1,0E0,7.0653925E0,5.1749268E0,0E0,0E0,3.2930687E1,2.885986E1,5.149498E0,0E0,9.105759E0,0E0,0E0,0E0,0E0,0E0,0E0,0E0,1.0618896E0,0E0,0E0,0E0,1.3417339E0,0E0,2.7880056E0,9.491272E-1,1.0413208E0,2.2805523E1,8.128218E0,9.212105E0,2.1465992E1,0E0,2.7564087E0,0E0,1.2695312E-1,0E0,0E0,0E0,0E0,0E0,0E0,0E0,0E0,0E0,0E0,0E0,0E0,0E0,0E0,0E0,0E0,0E0,0E0,0E0,0E0,0E0],"parents":[2147483647,0,0,1,1,2,2,3,3,4,4,5,5,6,6,7,7,8,8,9,9,10,10,12,12,13,13,14,14,15,15,17,17,18,18,19,19,20,20,21,21,22,22,24,24,26,26,27,27,29,29,31,31,33,33,34,34,39,39,41,41,42,42,45,45,47,47,48,48,49,49,51,51,52,52,55,55,56,56,57,57,59,59,67,67,71,71,73,73,74,74,75,75,76,76,77,77,78,78,79,79,81,81,83,83],"right_children":[2,4,6,8,10,12,14,16,18,20,22,-1,24,26,28,30,-1,32,34,36,38,40,42,-1,44,-1,46,48,-1,50,-1,52,-1,54,56,-1,-1,-1,-1,58,-1,60,62,-1,-1,64,-1,66,68,70,-1,72,74,-1,-1,76,78,80,-1,82,-1,-1,-1,-1,-1,-1,-1,84,-1,-1,-1,86,-1,88,90,92,94,96,98,100,-1,102,-1,104,-1,-1,-1,-1,-1,-1,-1,-1,-1,-1,-1,-1,-1,-1,-1,-1,-1,-1,-1,-1,-1],"split_conditions":[2.83E3,1.54662E-1,1.21E2,1.22E3,8.444691E0,4.636E3,2.313E3,2.17243E-1,4.8619E-2,-3E-2,2.004E-3,-2.3467131E-2,3.46902E1,9.778262E0,-1.146E-2,5.0630856E2,-2.7149985E-2,4.109E3,5E0,5.41813E-1,1.577E3,1.721E3,2.83994E-1,-2.6146693E-2,-2.521772E0,5.399067E-2,9.97202E-1,2.869E3,2.5292844E-2,2.8061144E1,-8.542913E-3,6.3E1,-3.408838E-2,-3.473E-1,7.079506E1,1.1781039E-2,5.3501334E-2,-2.661938E-2,3.0257517E-2,3.4E1,-3.2694068E-2,2.91E2,1.1702266E1,-0E0,5.371636E-2,2.193703E0,4.5036674E-2,2.8406E-2,2E0,1.2854433E1,5.3399075E-2,4.995E3,-5.9967E-1,1.5322668E-2,-5.108952E-2,1.683E3,9.32981E-1,9.78149E-1,-2.4258545E-2,-3.08E-1,5.4627832E-2,5.7563394E-2,-8.033804E-3,-1.5398549E-2,1.2601754E-3,5.571721E-2,-3.663813E-2,-1.5666E-2,6.5851286E-3,5.083505E-2,-4.4068944E-2,1.9066156E1,-4.191844E-2,-1.7E-5,2.773E3,2.937E-3,2.940303E0,5.7023E-2,-3.5791E2,4.865E3,6.654884E-2,2.97E-4,3.9502468E-2,1.32E2,-4.5802813E-2,4.000046E-3,4.6691943E-2,4.2408433E-2,-1.1495537E-2,5.414669E-2,1.5807377E-2,6.4430125E-2,3.9911855E-2,5.861568E-2,-4.870612E-3,-2.5715396E-2,5.4942567E-2,9.433148E-3,-2.3753187E-2,-3.2233E-2,5.5446804E-2,-2.2979593E-2,9.194235E-3,-1.1818818E-2,-2.360442E-2],"split_indices":[24,31,36,36,43,12,12,23,31,0,40,0,41,43,18,8,0,12,44,19,36,24,40,0,0,0,4,12,0,41,0,12,0,10,9,0,0,0,0,16,0,42,19,0,0,1,0,23,14,4,0,16,6,0,0,24,49,58,0,18,0,0,0,0,0,0,0,18,0,0,0,2,0,28,24,20,7,31,0,12,0,28,0,36,0,0,0,0,0,0,0,0,0,0,0,0,0,0,0,0,0,0,0,0,0],"split_type":[0,0,0,0,0,0,0,0,0,0,0,0,0,0,0,0,0,0,0,0,0,0,0,0,0,0,0,0,0,0,0,0,0,0,0,0,0,0,0,0,0,0,0,0,0,0,0,0,0,0,0,0,0,0,0,0,0,0,0,0,0,0,0,0,0,0,0,0,0,0,0,0,0,0,0,0,0,0,0,0,0,0,0,0,0,0,0,0,0,0,0,0,0,0,0,0,0,0,0,0,0,0,0,0,0],"sum_hessian":[1.0272E4,3.977E3,6.295E3,2.624E3,1.353E3,2.08E2,6.087E3,1.996E3,6.28E2,5.17E2,8.36E2,1.5E1,1.93E2,5.2E1,6.035E3,1.99E3,6E0,2.92E2,3.36E2,5.08E2,9E0,6E1,7.76E2,3E0,1.9E2,3E1,2.2E1,6.032E3,3E0,1.986E3,4E0,2.85E2,7E0,4.4E1,2.92E2,3E0,5.05E2,6E0,3E0,5.4E1,6E0,7.64E2,1.2E1,3E0,1.87E2,1.7E1,5E0,9E0,6.023E3,1.6E1,1.97E3,1.3E1,2.72E2,3E0,4.1E1,1.36E2,1.56E2,4.9E1,5E0,7.6E2,4E0,9E0,3E0,3E0,1.4E1,3E0,6E0,6.02E3,3E0,1.3E1,3E0,1E1,3E0,8E0,2.64E2,5.4E1,8.2E1,2.2E1,1.34E2,3.2E1,1.7E1,7.55E2,5E0,6.014E3,6E0,3E0,7E0,3E0,5E0,2.61E2,3E0,4E1,1.4E1,1.7E1,6.5E1,3E0,1.9E1,2.5E1,1.09E2,9E0,2.3E1,7.49E2,6E0,7E0,6.007E3],"tree_param":{"num_deleted":"0","num_feature":"61","num_nodes":"105","size_leaf_vector":"1"}},{"base_weights":[2.0726865E-4,5.988817E-1,-4.0652663E-1,8.523442E-1,1.2117752E-1,5.068786E-2,-4.3706763E-1,9.9200195E-1,4.1056028E-1,9.91417E-1,-3.5309774E-1,6.438674E-1,-4.4721177E-1,9.9594253E-1,-2.538084E-2,9.350589E-1,1.5120008E-2,1.01172E0,-1.1286849E-1,-4.025375E-1,6.303355E-1,-5.860362E-2,9.541394E-1,-4.4748297E-1,-8.060589E-4,9.9989855E-1,-2.9116192E-1,9.854515E-1,-3.4315057E-2,-6.5643084E-1,1.9752322E-1,1.4001156E-2,1.0153719E0,-2.5658777E-2,2.9544303E-2,-4.2020655E-1,8.140736E-1,7.55151E-1,-2.4960907E-2,1.2505719E-3,-1.912546E-2,5.3138327E-2,-0E0,-3.53632E-1,-4.4823605E-1,1.0106905E0,7.6074487E-1,-2.6380256E-2,-0E0,-0E0,1.0040756E0,-9.161257E-1,-7.798283E-2,6.4566195E-1,-1.3063389E-1,6.5337414E-1,5.106291E-2,1.9800073E-1,-4.424285E-1,-7.7325376E-3,5.6507803E-2,2.501296E-1,1.0040461E0,4.6250083E-2,-2.2542503E-2,-2.4869137E-1,-2.2424132E-2,5.372229E-1,5.0737645E-2,9.557595E-1,1.8807463E-1,1.0136876E0,4.8658812E-1,-4.8204236E-2,-4.3525216E-1,2.2815256E-1,-4.0936074E-1,1.0408368E0,3.929177E-1,9.239436E-1,-2.6139426E-1,9.722887E-5,4.4245858E-2,-2.987736E-1,6.405521E-2,-4.4681978E-1,2.8541977E-2,5.7697173E-2,-4.695178E-1,5.697548E-2,4.399349E-1,1.081688E-2,-2.4659028E-2,4.961778E-2,-4.5780987E-2,1.847921E-2,4.9710862E-2,5.2593637E-2,-2.256245E-2,5.0978076E-2,1.7746475E-2,2.6623923E-3,3.866407E-2,-7.933292E-3,-2.8901273E-2,6.702134E-3,2.024583E-2,-3.256686E-2,-9.159663E-5,5.694148E-2,-1.4839523E-2,-2.1030102E-4,4.688039E-2,5.5111546E-2,-0E0,3.7286137E-3,-2.0373E-2,1.9383663E-2,-2.3920516E-2,-2.2562774E-2,6.718652E-3,-0E0,-3.502671E-2,-9.631737E-3,4.9376044E-2],"categories":[],"categories_nodes":[],"categories_segments":[],"categories_sizes":[],"default_left":[0,0,0,0,0,0,0,0,0,0,0,0,0,0,0,0,0,0,0,0,0,0,0,0,0,0,0,0,0,0,0,0,0,0,0,0,0,0,0,0,0,0,0,0,0,0,0,0,0,0,0,0,0,0,0,0,0,0,0,0,0,0,0,0,0,0,0,0,0,0,0,0,0,0,0,0,0,0,0,0,0,0,0,0,0,0,0,0,0,0,0,0,0,0,0,0,0,0,0,0,0,0,0,0,0,0,0,0,0,0,0,0,0,0,0,0,0,0,0,0,0,0,0,0,0],"id":14,"left_children":[1,3,5,7,9,-1,11,13,15,17,19,21,23,25,-1,27,29,31,33,35,37,39,41,43,-1,45,47,49,-1,51,53,-1,55,-1,-1,57,59,61,-1,-1,-1,-1,-1,63,65,67,69,-1,-1,-1,71,73,75,77,79,81,-1,83,85,-1,-1,87,89,-1,-1,91,-1,93,-1,95,97,99,101,-1,103,105,107,109,111,113,115,-1,-1,117,-1,119,-1,-1,121,-1,123,-1,-1,-1,-1,-1,-1,-1,-1,-1,-1,-1,-1,-1,-1,-1,-1,-1,-1,-1,-1,-1,-1,-1,-1,-1,-1,-1,-1,-1,-1,-1,-1,-1,-1],"loss_changes":[2.5015068E3,5.030083E2,2.657218E2,1.6696411E2,5.9557495E2,0E0,6.59386E1,1.2739258E1,1.3553558E2,1.1615936E1,4.5642708E1,1.2351067E1,6.402588E-1,1.08359375E1,0E0,2.3665192E1,4.5896164E1,9.222412E-1,3.1126363E0,1.9434433E1,6.746937E0,5.328177E-1,4.0266495E0,1.8041992E-1,0E0,4.347412E0,5.200418E-1,5.074707E0,0E0,1.1846752E1,4.3518524E1,0E0,2.243042E-1,0E0,0E0,1.2173813E1,4.2528877E0,4.777033E0,0E0,0E0,0E0,0E0,0E0,6.957854E0,1.0803223E-1,3.067627E0,1.0092018E1,0E0,0E0,0E0,6.897888E-1,7.088661E-1,2.7491264E0,1.1932438E1,2.3755638E1,1.5687666E0,0E0,1.7160791E1,4.0158997E0,0E0,0E0,1.0366648E1,1.4039898E0,0E0,0E0,1.2713234E0,0E0,1.3479782E1,0E0,1.0516357E0,1.4340882E1,5.1449585E-1,7.458217E-1,0E0,1.1104202E-1,1.2472141E-1,1.2154508E0,6.713928E0,1.6969414E1,3.2188435E0,7.5718718E0,0E0,0E0,2.907384E0,0E0,2.2707062E0,0E0,0E0,9.6046686E-1,0E0,2.6944232E0,0E0,0E0,0E0,0E0,0E0,0E0,0E0,0E0,0E0,0E0,0E0,0E0,0E0,0E0,0E0,0E0,0E0,0E0,0E0,0E0,0E0,0E0,0E0,0E0,0E0,0E0,0E0,0E0,0E0,0E0,0E0,0E0,0E0,0E0],"parents":[2147483647,0,0,1,1,2,2,3,3,4,4,6,6,7,7,8,8,9,9,10,10,11,11,12,12,13,13,15,15,16,16,17,17,18,18,19,19,20,20,21,21,22,22,23,23,25,25,26,26,27,27,29,29,30,30,32,32,35,35,36,36,37,37,43,43,44,44,45,45,46,46,50,50,51,51,52,52,53,53,54,54,55,55,57,57,58,58,61,61,62,62,65,65,67,67,69,69,70,70,71,71,72,72,74,74,75,75,76,76,77,77,78,78,79,79,80,80,83,83,85,85,88,88,90,90],"right_children":[2,4,6,8,10,-1,12,14,16,18,20,22,24,26,-1,28,30,32,34,36,38,40,42,44,-1,46,48,50,-1,52,54,-1,56,-1,-1,58,60,62,-1,-1,-1,-1,-1,64,66,68,70,-1,-1,-1,72,74,76,78,80,82,-1,84,86,-1,-1,88,90,-1,-1,92,-1,94,-1,96,98,100,102,-1,104,106,108,110,112,114,116,-1,-1,118,-1,120,-1,-1,122,-1,124,-1,-1,-1,-1,-1,-1,-1,-1,-1,-1,-1,-1,-1,-1,-1,-1,-1,-1,-1,-1,-1,-1,-1,-1,-1,-1,-1,-1,-1,-1,-1,-1,-1,-1],"split_conditions":[2.907E3,1.62065E-1,2.249E3,1.22E3,8.444691E0,5.068786E-2,5.738E-1,3.468E3,4.2017E-2,-3E-2,9.492E-1,8.66432E-1,1.024E3,4.8149E2,-2.538084E-2,8.218E-1,5.9717E-2,6.2953E-2,9.74E-2,2.83994E-1,1.721E3,-4.615304E0,6.129474E0,2.931E3,-8.060589E-4,2.985E3,2.9374783E2,4.95089E-1,-3.4315057E-2,1.5095093E1,7.079506E1,1.4001156E-2,-2.51004E-1,-2.5658777E-2,2.9544303E-2,2.188E-1,3.959861E0,1.2154891E1,-2.4960907E-2,1.2505719E-3,-1.912546E-2,5.3138327E-2,-0E0,-8.31203E-1,6.208E-1,2.8061144E1,2.808E3,-2.6380256E-2,-0E0,-0E0,7.958E-1,6.7E1,4.446E-1,1.487E3,8.60895E-1,-1.8E-5,5.106291E-2,7.38338E-1,2.71E2,-7.7325376E-3,5.6507803E-2,1.3104042E2,2E1,4.6250083E-2,-2.2542503E-2,1E-3,-2.2424132E-2,7.248E-1,5.0737645E-2,3.965001E0,9.99789E-1,5E3,-6.395E-3,-4.8204236E-2,9.9228E-1,9.95888E-1,-5.4589E-2,1.2164319E1,3.49844E1,4.8732E-2,2E0,9.722887E-5,4.4245858E-2,6.94466E-1,6.405521E-2,1.4705E-2,2.8541977E-2,5.7697173E-2,9.548E-1,5.697548E-2,2.6E1,1.081688E-2,-2.4659028E-2,4.961778E-2,-4.5780987E-2,1.847921E-2,4.9710862E-2,5.2593637E-2,-2.256245E-2,5.0978076E-2,1.7746475E-2,2.6623923E-3,3.866407E-2,-7.933292E-3,-2.8901273E-2,6.702134E-3,2.024583E-2,-3.256686E-2,-9.159663E-5,5.694148E-2,-1.4839523E-2,-2.1030102E-4,4.688039E-2,5.5111546E-2,-0E0,3.7286137E-3,-2.0373E-2,1.9383663E-2,-2.3920516E-2,-2.2562774E-2,6.718652E-3,-0E0,-3.502671E-2,-9.631737E-3,4.9376044E-2],"split_indices":[24,31,32,36,43,0,13,32,31,0,13,9,44,8,0,13,29,29,13,40,24,18,46,24,0,32,4,9,0,8,9,0,34,0,0,13,46,43,0,0,0,0,0,6,13,41,24,0,0,0,13,42,13,24,50,28,0,11,42,0,0,1,16,0,0,34,0,13,0,8,50,16,6,0,4,4,3,29,41,20,37,0,0,11,0,20,0,0,13,0,16,0,0,0,0,0,0,0,0,0,0,0,0,0,0,0,0,0,0,0,0,0,0,0,0,0,0,0,0,0,0,0,0,0,0],"split_type":[0,0,0,0,0,0,0,0,0,0,0,0,0,0,0,0,0,0,0,0,0,0,0,0,0,0,0,0,0,0,0,0,0,0,0,0,0,0,0,0,0,0,0,0,0,0,0,0,0,0,0,0,0,0,0,0,0,0,0,0,0,0,0,0,0,0,0,0,0,0,0,0,0,0,0,0,0,0,0,0,0,0,0,0,0,0,0,0,0,0,0,0,0,0,0,0,0,0,0,0,0,0,0,0,0,0,0,0,0,0,0,0,0,0,0,0,0,0,0,0,0,0,0,0,0],"sum_hessian":[1.0271E4,4.155E3,6.116E3,2.714E3,1.441E3,1.28E2,5.988E3,2.061E3,6.53E2,5.08E2,9.33E2,5.5E1,5.933E3,2.056E3,5E0,2.8E2,3.73E2,4.99E2,9E0,8.89E2,4.4E1,1.7E1,3.8E1,5.929E3,4E0,2.05E3,6E0,2.72E2,8E0,7.9E1,2.94E2,3E0,4.96E2,6E0,3E0,8.77E2,1.2E1,4E1,4E0,1.4E1,3E0,3.4E1,4E0,5.2E1,5.877E3,1.958E3,9.2E1,3E0,3E0,5E0,2.67E2,5.4E1,2.5E1,1.24E2,1.7E2,1E1,4.86E2,3E1,8.47E2,3E0,9E0,1.4E1,2.6E1,3E0,4.9E1,9E0,5.868E3,1.8E1,1.94E3,6.8E1,2.4E1,2.61E2,6E0,4.8E1,6E0,1.3E1,1.2E1,4.7E1,7.7E1,1.8E1,1.52E2,3E0,7E0,2.1E1,9E0,8.44E2,3E0,6E0,8E0,2E1,6E0,3E0,6E0,1.4E1,4E0,5E0,6.3E1,1E1,1.4E1,2.58E2,3E0,3E0,3E0,3E0,3E0,1E1,3E0,7E0,5E0,4.4E1,3E0,4.5E1,3.2E1,1.5E1,3E0,4.6E1,1.06E2,4E0,1.7E1,8.38E2,6E0,3E0,5E0,3E0,3E0],"tree_param":{"num_deleted":"0","num_feature":"61","num_nodes":"125","size_leaf_vector":"1"}},{"base_weights":[2.2371933E-3,5.726843E-1,-3.8671353E-1,8.1447315E-1,1.0788703E-1,4.816095E-2,-4.1478422E-1,8.788622E-1,5.401311E-3,8.879357E-1,-3.510766E-1,7.2906154E-1,-4.2441794E-1,9.3449235E-1,3.500089E-1,5.6397825E-1,-3.0088067E-1,9.625615E-1,-9.311539E-2,-3.9464322E-1,5.6250775E-1,1.5951121E-1,9.6573997E-1,3.466481E-3,-4.2486516E-1,9.3721837E-1,-4.139816E-2,-8.4421074E-1,6.738278E-1,9.4028825E-1,2.7041662E-1,6.547326E-2,-3.4963462E-1,4.8313793E-2,1.2281083E-2,-3.63049E-1,5.699417E-2,-4.1177744E-1,9.468058E-1,5.4071944E-2,1.050208E-1,5.134903E-5,3.048536E-2,5.014729E-2,2.0082917E-2,-4.2518422E-1,6.3323723E-3,2.045044E-1,9.419364E-1,-4.624559E-2,1.6521502E-2,4.9191635E-2,7.0275694E-2,5.2521925E-2,4.7980136E-1,7.844134E-1,-2.2796291E-1,-4.370352E-1,3.3125225E-1,-2.4662316E-2,7.6698646E-2,-4.2021236E-1,5.3382095E-2,5.614214E-2,1.6651522E-2,-4.4982374E-1,6.5944695E-1,-2.1395987E-1,-2.1270895E-2,5.7598915E-2,-6.493062E-1,9.5203805E-1,6.3294E-1,-1.1981695E-1,5.2036114E-2,4.0137097E-2,-9.412366E-4,-1.6631499E-2,9.9462235E-1,-6.2777555E-1,6.1847765E-2,3.8174357E-2,-4.7726092E-1,5.983714E-2,-3.6760178E-1,-2.1891234E-2,3.6283907E-2,-4.2891365E-1,3.348872E-1,-4.3675605E-2,5.1391656E-3,5.6014784E-2,-2.5866225E-2,1.0352199E-2,-2.378179E-2,-3.865834E-3,-4.5287408E-2,6.8930053E-4,4.7685105E-2,4.2131897E-2,-4.0218007E-2,5.3245355E-3,-2.5341464E-2,-4.156286E-3,6.1119016E-2,-4.694574E-2,1.7448468E-2,-2.9258952E-2,-9.471312E-3,1.5847121E-3,-2.9459942E-2,-0E0,-2.1736452E-2,5.8677554E-2,-2.0157361E-2],"categories":[],"categories_nodes":[],"categories_segments":[],"categories_sizes":[],"default_left":[0,0,0,0,0,0,0,0,0,0,0,0,0,0,0,0,0,0,0,0,0,0,0,0,0,0,0,0,0,0,0,0,0,0,0,0,0,0,0,0,0,0,0,0,0,0,0,0,0,0,0,0,0,0,0,0,0,0,0,0,0,0,0,0,0,0,0,0,0,0,0,0,0,0,0,0,0,0,0,0,0,0,0,0,0,0,0,0,0,0,0,0,0,0,0,0,0,0,0,0,0,0,0,0,0,0,0,0,0,0,0,0,0,0,0],"id":15,"left_children":[1,3,5,7,9,-1,11,13,15,17,19,21,23,25,27,29,31,33,35,37,39,41,43,-1,45,47,-1,49,51,53,55,-1,57,-1,-1,59,-1,61,63,-1,65,-1,-1,-1,-1,67,-1,69,71,-1,-1,-1,73,-1,75,77,79,81,83,-1,85,87,-1,-1,-1,89,91,93,-1,-1,95,97,99,101,-1,-1,-1,-1,103,105,-1,-1,107,-1,109,-1,-1,111,113,-1,-1,-1,-1,-1,-1,-1,-1,-1,-1,-1,-1,-1,-1,-1,-1,-1,-1,-1,-1,-1,-1,-1,-1,-1,-1],"loss_changes":[2.2673672E3,4.6542175E2,2.3058594E2,1.4186658E2,5.0838727E2,0E0,6.587793E1,7.3801025E1,3.4754574E1,3.8685944E1,3.578797E1,6.473442E0,1.3687744E0,1.1755737E1,9.413586E1,7.578514E0,1.0646752E1,9.4366455E-1,1.2983607E1,1.9965317E1,9.501353E0,1.0798838E0,1.9124603E-1,0E0,1.1217041E0,7.574463E0,0E0,5.2943916E0,3.5562332E1,9.153805E-1,1.0993413E1,0E0,7.7726192E0,0E0,0E0,1.9116125E0,0E0,1.0915955E1,6.6899014E-1,0E0,7.3928647E0,0E0,0E0,0E0,0E0,1.3598633E-1,0E0,1.3741665E1,6.30896E0,0E0,0E0,0E0,1.2392121E1,0E0,1.3817157E0,5.328102E0,1.3600855E1,5.841032E0,9.595613E0,0E0,3.0178256E0,5.6721344E0,0E0,0E0,0E0,2.9764533E0,7.147617E0,1.1168358E0,0E0,0E0,1.1518028E0,3.310791E0,2.328652E1,4.9987025E0,0E0,0E0,0E0,0E0,4.6339207E0,5.856914E0,0E0,0E0,3.259636E0,0E0,8.7077E-1,0E0,0E0,2.094757E0,6.7397823E0,0E0,0E0,0E0,0E0,0E0,0E0,0E0,0E0,0E0,0E0,0E0,0E0,0E0,0E0,0E0,0E0,0E0,0E0,0E0,0E0,0E0,0E0,0E0,0E0,0E0,0E0],"parents":[2147483647,0,0,1,1,2,2,3,3,4,4,6,6,7,7,8,8,9,9,10,10,11,11,12,12,13,13,14,14,15,15,16,16,17,17,18,18,19,19,20,20,21,21,22,22,24,24,25,25,27,27,28,28,29,29,30,30,32,32,35,35,37,37,38,38,40,40,45,45,47,47,48,48,52,52,54,54,55,55,56,56,57,57,58,58,60,60,61,61,65,65,66,66,67,67,70,70,71,71,72,72,73,73,78,78,79,79,82,82,84,84,87,87,88,88],"right_children":[2,4,6,8,10,-1,12,14,16,18,20,22,24,26,28,30,32,34,36,38,40,42,44,-1,46,48,-1,50,52,54,56,-1,58,-1,-1,60,-1,62,64,-1,66,-1,-1,-1,-1,68,-1,70,72,-1,-1,-1,74,-1,76,78,80,82,84,-1,86,88,-1,-1,-1,90,92,94,-1,-1,96,98,100,102,-1,-1,-1,-1,104,106,-1,-1,108,-1,110,-1,-1,112,114,-1,-1,-1,-1,-1,-1,-1,-1,-1,-1,-1,-1,-1,-1,-1,-1,-1,-1,-1,-1,-1,-1,-1,-1,-1,-1],"split_conditions":[2.907E3,1.62065E-1,2.249E3,5.7079067E3,2.188E-1,4.816095E-2,4.626E-1,1.10022E-1,4.1E1,-3E-2,9.468E-1,1.48746E-1,5.738E-1,4.997E3,2E0,8.60895E-1,1.126E3,-3.8276E-1,2.29292E-1,2.83994E-1,1.487E3,1.57501E-1,3.100561E0,3.466481E-3,2E0,-2.383629E1,-4.139816E-2,1E1,2.572E-1,4.8732E-2,3.52438E0,6.547326E-2,9.848E-1,4.8313793E-2,1.2281083E-2,2.1419E-1,5.699417E-2,2.91E2,1.237E3,5.4071944E-2,5.194092E0,5.134903E-5,3.048536E-2,5.014729E-2,2.0082917E-2,6.208E-1,6.3323723E-3,4.9E1,2.861E3,-4.624559E-2,1.6521502E-2,4.9191635E-2,5.86706E-1,5.2521925E-2,4.613648E0,7.23767E1,6.68325E-1,4.331219E0,1.64E3,-2.4662316E-2,1.1202E-2,9.80826E-1,5.3382095E-2,5.614214E-2,1.6651522E-2,2.011E3,2E-3,1.8002E-2,-2.1270895E-2,5.7598915E-2,1.19248E-1,-2.3287E2,9.98688E-1,4.446E-1,5.2036114E-2,4.0137097E-2,-9.412366E-4,-1.6631499E-2,-6.1E-5,1.09644E-1,6.1847765E-2,3.8174357E-2,1.32053E-1,5.983714E-2,4.663982E0,-2.1891234E-2,3.6283907E-2,1.274E3,2.8E1,-4.3675605E-2,5.1391656E-3,5.6014784E-2,-2.5866225E-2,1.0352199E-2,-2.378179E-2,-3.865834E-3,-4.5287408E-2,6.8930053E-4,4.7685105E-2,4.2131897E-2,-4.0218007E-2,5.3245355E-3,-2.5341464E-2,-4.156286E-3,6.1119016E-2,-4.694574E-2,1.7448468E-2,-2.9258952E-2,-9.471312E-3,1.5847121E-3,-2.9459942E-2,-0E0,-2.1736452E-2,5.8677554E-2,-2.0157361E-2],"split_indices":[24,31,32,5,13,0,13,23,42,0,13,56,13,16,42,50,24,18,31,40,24,53,29,0,14,2,0,37,13,20,7,0,13,0,0,0,0,42,24,0,11,0,0,0,0,13,0,42,24,0,0,0,11,0,7,19,60,46,24,0,23,57,0,0,0,32,23,2,0,0,31,0,53,13,0,0,0,0,28,31,0,0,31,0,46,0,0,24,16,0,0,0,0,0,0,0,0,0,0,0,0,0,0,0,0,0,0,0,0,0,0,0,0,0,0],"split_type":[0,0,0,0,0,0,0,0,0,0,0,0,0,0,0,0,0,0,0,0,0,0,0,0,0,0,0,0,0,0,0,0,0,0,0,0,0,0,0,0,0,0,0,0,0,0,0,0,0,0,0,0,0,0,0,0,0,0,0,0,0,0,0,0,0,0,0,0,0,0,0,0,0,0,0,0,0,0,0,0,0,0,0,0,0,0,0,0,0,0,0,0,0,0,0,0,0,0,0,0,0,0,0,0,0,0,0,0,0,0,0,0,0,0,0],"sum_hessian":[1.0217E4,4.142E3,6.075E3,2.724E3,1.418E3,1.23E2,5.952E3,2.523E3,2.01E2,5.25E2,8.93E2,4.9E1,5.903E3,2.282E3,2.41E2,7.1E1,1.3E2,4.88E2,3.7E1,8.53E2,4E1,1.5E1,3.4E1,5E0,5.898E3,2.279E3,3E0,5.1E1,1.9E2,3E1,4.1E1,3E0,1.27E2,4.85E2,3E0,3.1E1,6E0,8.43E2,1E1,1.8E1,2.2E1,1.2E1,3E0,3.1E1,3E0,5.895E3,3E0,1.5E1,2.264E3,4.8E1,3E0,1.25E2,6.5E1,2.3E1,7E0,2E1,2.1E1,1.13E2,1.4E1,2.4E1,7E0,8.39E2,4E0,7E0,3E0,1.1E1,1.1E1,8E0,5.887E3,7E0,8E0,2.19E3,7.4E1,5.5E1,1E1,4E0,3E0,3E0,1.7E1,1.7E1,4E0,3E0,1.1E2,6E0,8E0,4E0,3E0,8.3E2,9E0,6E0,5E0,8E0,3E0,3E0,5E0,3E0,5E0,4E0,2.186E3,6.5E1,9E0,3.5E1,2E1,3E0,1.4E1,1.3E1,4E0,7.9E1,3.1E1,3E0,5E0,1.1E1,8.19E2,4E0,5E0],"tree_param":{"num_deleted":"0","num_feature":"61","num_nodes":"115","size_leaf_vector":"1"}},{"base_weights":[1.7554446E-3,5.475448E-1,-3.685695E-1,7.8034586E-1,1.124907E-1,4.5772117E-2,-3.95203E-1,8.350733E-1,8.247789E-2,8.9276576E-1,-3.140396E-1,6.4015234E-1,-4.037228E-1,-4.1049704E-2,8.5084784E-1,5.0665576E-2,-8.363811E-2,9.0859336E-1,-7.8147694E-2,-3.5637417E-1,5.4713845E-1,1.6615562E-1,4.7893446E-2,3.3220463E-3,-4.0414837E-1,8.869589E-1,5.28667E-1,5.012263E-2,-1.6675563E-1,9.1213006E-1,1.07617965E-2,-2.3234865E-2,2.4810683E-2,4.031555E-1,-3.8072002E-1,7.430666E-1,-4.1492158E-1,3.7534226E-2,